#include "my_model_coefficient.hpp"
using namespace dl;

namespace my_model_coefficient
{
    const static __attribute__((aligned(16))) int16_t sequential_1_conv2d_biasadd_filter_element[] = {
        -10473, -20915, -10317,  -8950, -13015,    416,   3885, -19679, -17149, -19812,   3669, -29754,  29819,  19525,  -3629,   9054, -29541,    461, -28953, -23958,  19594,  -7516,   2208,   4805,   3762,  10491, -26036, -20018,    381, -29649, -14950, -22297,  15138,  30508,  -3728,  13110, -14888,  -6139,  10444, -14165,   7031,  -7130, -25296, -18135,  18260,  -3265,  -4609,  26600, -13691, -15049,   7261, -25500,   4897, -11521, -29001,  22291,   2729, -25960,  -5701,  11362,  -1813,   2536,   -758,   -910, -27687,  -4006, -10628, -28328, -11136, -18093,  -5880, -28739,    309,  20918,   4061,  23875,  23825,  28299,  10120, -10739,  -4763, -18969, -27362,  17249, -22916,  17431, -24382,  15735,   4449,  22705,  10605,  28145, -29437,  22551,  11783, -24675,   1661,   1197,  -3848,   5528, -25621,   8015,  32426, -22716,  25068,  25606,  -8515,  22966,  -6812,  12142,  -9530,   5520,  -2084,  30820,  20026, -11355, -17846, -27524,  14796,  24379,  30259, -12398,  21760,  -8176,  28578, -29049, -12166,  -8617, -17128,  24103,   8749,  17380, -17136,  -6328,  -7162,  19413,  -2025,   9858, -22060,    267, -18488, -26368,  29522, -10592, -23860,   7183,  19987, -22643,   4208,  22384,  -5409, -17967,  15310,   5034, -19297,  -8561,  11045, -23854, -12139,  10686, -26416,  30724, -23574,  12116, -24662,   7488,   1225, -14224,  -8973,   3629,  21181,  19005,  -6908, -22106,  -6392,  21377, -24584,  21343,  16763,  -4504,  19630,   -523,   7930,   4987,  15428,   4113,  27548, -18963,  19041,  22395,   6184,  16439, -13762,  -6276, -17342,  18697, -10045,  21536,   7413,  11046,  14829,  17156, -21458, -15586,   6831, -16132,    749, -26121,    290,  -6601,    662,  -2035, -25248,  18998,  30035,  -6405, -19655,  -5490, -12066,  -4885,  21609, -19474, -11591, -25530,  -6854,  -3517, -22410, -13063, -28159,  18773,   2613,  10823, -10180,  17435,  -6452,   2187, -11622, -22073, -29828,  14378,  -4236, -26415,   -731,   9780, -12522,  12445,  -2819, -14165,  27402,  17569,  -8805, -25925,   9499,  25470, -17503,  29059,  20871,   5588, -15504,  23345,  23428, -13245,   1755,  17701, -14451, -25338, -24895,  -5268, -11118,   6275,  22444, -12947, -20925, -23665, -29443,  -4307,  19361,   6692,  22142,  28474,  19084,  12440,  -8094, -14279, -12312,  11284, -27746, -11273,  24448,   -914,  31565,  21184,  30445,  22008,    997,  19187,   3239, -13024, -15043,  26810,  18217, -24539,  24635,  15123,  -2881,  32588,   7201,  -7974,  15212, -28155,  21265,  24158, -26584,   -951,  13696,   8425,  24601,  27412,  -9699,  10137, -25500, -15321, -28141, -28907, -29167,   1669,  11496,  14601, -29263, -12804,   7253, -20021, -15398,  31183,  -6566,  15120,  -9141,  19071,   3895,  -4036, -13825, -14276,  -5644,   1644, -29538, -27238, -19349,  21721,  26124, -23688,    284, -16551,  10338, -29278, -27756,  25905,  22885, -17557, -26079,   1328, -12887, -17962, -17126,  12139, -15460, -25152, -19994, -14548,    -75, -20575, -29026, -19109,   -850, -26331,   -708,  16655,  -9775,   5523,  11605,   -494, -27186, -27505,   6288, -26037,  19630,  18194, -27605, -15484,  19402, -16971,  17437, -30553,  11823, -25263,  14870, -12788, -16328, -13091,   9041, -18413};

    const static Filter<int16_t> sequential_1_conv2d_biasadd_filter(sequential_1_conv2d_biasadd_filter_element, -18, {5, 5, 1, 16}, {1, 1});
    const Filter<int16_t> *get_sequential_1_conv2d_biasadd_filter()
    {
    	return &sequential_1_conv2d_biasadd_filter;
    }

    const static __attribute__((aligned(16))) int16_t sequential_1_conv2d_biasadd_bias_element[] = {
             0,      0,      0,      0,      0,      1,     -1,      0,      0,      0,      0,     -1,      0,      0,      0,      1};

    const static Bias<int16_t> sequential_1_conv2d_biasadd_bias(sequential_1_conv2d_biasadd_bias_element, -7, {16,});
    const Bias<int16_t> *get_sequential_1_conv2d_biasadd_bias()
    {
    	return &sequential_1_conv2d_biasadd_bias;
    }

    const static Activation<int16_t> sequential_1_conv2d_biasadd_activation(ReLU);
    const Activation<int16_t> *get_sequential_1_conv2d_biasadd_activation()
    {
    	return &sequential_1_conv2d_biasadd_activation;
    }

    const static __attribute__((aligned(16))) int16_t sequential_1_conv2d_1_biasadd_filter_element[] = {
         -4925,   5754,  18313,   9279,  11475,  16838,  -2369,  21263, -19517, -18655,   1744, -19913,  17348,  16707,  17793,   4945,  10535, -21494,  19584, -17982,  -5583, -11110,  20096,  21460,  10141,  10540, -19539,  20132,  21260,  -7654,  -5017,   4379,  21042, -22019,   6859, -16102,  11971, -22377,  15960,  10276,  14214,  15454, -18149,  22057, -20292, -12631,  12244,   8088,  10704,  18197,  -7074,   9396,   8860,  11166, -14730,   3138,  16720, -13367,   8989, -21726,   3260,  -5467,   8772, -11024, -20734,  19860,    826,  12000, -19331,  -6776,  20022,  17894,    943,  -4057, -16113,  -3240, -12142,   3391,  -8481, -21793,   5364,  20434,  15911,  12749,  -5177,   3724, -16534,   5672,  11185, -16441,  -9365,  21194,  14237, -21376,  17798,  12541, -18750, -17320,  -9536, -19550,  16742, -15835,  -2766,  -5236,  -7405,  14580, -20303,  20269,  -5597,  -6149,  15364, -14823,  23089, -11493,  20317,   8595,   6407,  22021,  22081,  -2431, -21463, -20117,  -1406,  -2431,  -9249,   -944,   3876,   3523,  17732,  -7329,  -5388,  24235,   6647,  19422,  -5149,  21355,  -7271,  -1883,  14213,  -6110,  20140,   1693,  -2231,   8588, -17421,  -7306,  16866, -19816,  22344, -15610,  22931,   2093,  21238,   3175,  18294,   5000, -21548,  12162, -19933,  23455, -10010,  22270,   7066,   3877,  21399,  21103,  15319, -17657,  -4760,   9928,  24127,   5458,  16474,  14002,  10748, -10323,  22581,  -5831,   3982,  14515, -18466, -15544,  20609,  23619,   5182, -10335, -15662,  10082,  11107,   9522, -20195,   4632,   1279,  21924,  -1497,   7917, -22211, -17156,  12241, -14804, -16035,   8117,  -6765,  18076,   5146,   -394,  -3486,  -6434, -17780,  19811,  -1184, -11907,   4301, -16569,  23462, -15787, -21865, -13836,  -2315,   5425,  16633,  -4164,  -9166,   4423,  10408,  17085,   3429,   4500, -10124,  -7335,  20442,  -7517,  18868,  -2272, -16707,    218,  21604,  20886,  18852,   1773,   8925,   5416,  16059,  16851, -12056,   1395,  -7656,   9496,   -266,   -376,   2710,  -7618, -15751,  -3243,    920,   5522,   2753,   9672, -18316, -15099, -10254, -18223,  20105,   8553,   -808,  -7196,  -9905,   9847, -10259, -21784, -19790, -16474,   4232,  12415,  -3580,  12277,  -6717,   -439,  17338, -19023,  -9218,  -4166,  12308, -20626,  -1865, -19685,  -6273,    601, -20786,   2782,  -8609, -20838,   6862, -14227,  -3222,  23109,  21385, -14027, -16175, -18209,   -694,  -8947,  -3585,  14481,  -3140,   2214,   7627, -10398,   1862,   7756, -22107, -14549,   5840,  -7657, -19663,  12492,   7696, -20108,  -5322,  18928, -15396,  -7433, -20523,  20190,  -7335,  -7895, -22799,   2204,  -5351, -12455,  -4487,  15668,   7690,  -3146,  16231, -17163,  14403, -16718,   9617, -15892,  -3181,  21140, -17812,  -2075, -13418, -15025,  20457,   5258,  21099,   2677,  -1890,  13049,  -6992,    650,  -2008,  10534,  21778,   5317, -22303,   1846, -16094,  10738, -22792,   -831, -20164, -15614,  16829,  -1888, -17938, -19535,  12390,   3077,   5443,   -522,  12446,   4750,  20013, -21041,  -5133, -20095, -16147,   -842,   9722,  -8309, -12390,  -6829, -12966, -16894,  11552, -18666,  12604, -13365,  -7312, -10832,  19095, -15770,  -3385,   4526,  -3694,  16485,   1881, -20427,  -2942, -17517,  20977,  22386,  22689, -14349,   9868,    656,  15689,   2170,   9774,  16944,  -4928, -21254, -18516,  20614,   7002,   8261,  13283, -18568,  20777,  22437,  -6362,   7386,  13162, -15955,  -4274,  -9440,  -6911, -20033,   8174,   9802, -20117,   7107,   5579,  22810, -14968, -13177,  11755,  16408,     73,  13962, -17944,  17173,   7439,   5125, -14726, -15352,  14354,  -8969,   1425,  22783,  13083,   9653,  11549, -16318,   7227, -12411,  20511, -15436,  19476, -12387,  -8105,   7540,  12029,   1506,  16737, -18789,  21049,    928,  -9494,   2555,  13659,  -9831,  -5779,    790, -14298, -16288,  -8067,  -1207,  12377,  20933, -19357,  13834, -22408,  -9220,  18941,   5926,   -933,   7309,   5054,   2123, -21659,  -7931,  16475, -22243, -20100, -13069,  13004,  11011, -20423, -10900, -21158,   4902, -17525, -21080, -11653,  -1590,  16954, -13187,
         19513,   6948, -17804, -11943, -20046,  15128,  -9493, -14348,  22847,  19400,  -4112,   6349, -11096,   4771, -22919,    258,   9487,  19842,  12552, -18299,  10208,   9240,  13497, -19727,  10555, -15313,  -9875,   6757, -20735,  19733,  10158,   6814,   -360, -11978,  -6132,  23236,  -4644,  20811, -15960,   8295,   5123, -11254, -11096, -17225,   3042,  16890,  19905, -23170,   7321, -19261,  -2127, -18010, -18255, -21900,  22381,  15117,   5550,  -7125,   7670,  12036,  12958, -12377,  10613,  -6268,   -496, -14699,   7400,  21079, -10981,  11209,  -7726,  -2291,  -2506,   8501,  18432, -18028,   6457, -14612,   -903,   7746,  18331,   -434,  -8663, -14633, -16849,  -8997,  -4516,  20202,  -8596,  -6010, -22645,  23279,   4079,  16613, -20298, -16350,   8226,  11668,   -493,  12362,   1523,   9526,  18328,  -2543, -15048, -15603,   4236,  20705, -14950,  -7136,  13218,  15793, -22683,   8208,  -9914,  19368,  15137,   8766, -10190, -19673,  -3822,  19369, -12413, -12240, -16581,  13782, -15434, -14897,  -2407, -10863,  16357,  -8862,   1771,  22957,  -2206, -11761, -22214,  14637,  16546, -14150,  -6441,   4139, -14623, -12328,   8466, -15306,  -4591, -18048,   7873,  20867, -15678,  12130,  11013,  -1568,    651,   9101,  18567, -17299, -18741,  21987, -16938,  10084,  14434,  16062,  15888, -11517,  -8013, -20432,   2669,  -4454,  -4456,  24144, -16595,   3573,  20220, -21635,   4714,  18810,  18082,  21818,  16279,  15187,  -3160, -22004,  15698,  -4240,  -5874, -21270,  16453, -16209,   3621,  18693,  -4452,  -3314, -16864,   4239,  10510,  12817,  -2683,  24056,   3308,  10439,  -3663,   4123,  -8663,  -8034,  17853,   1520,  17408,  22624,   9189,  15337,   8333,  12392, -12125,  -2443,  18159,   1299,  17457, -13036, -11140, -17796, -14300,  -5047,  11791, -12886,  -2673,  17509,  -4012, -18294,  16209, -16434,  17180,   3240,  -8238,  18689,   4176,  -1313,  21204,   2742,  -9131,  10460,  17514,   2080, -10193,   7836, -14522, -16661,  19511,  17352,  -6056, -15265, -20387,  14407, -11177,  12154,  -3107,   9133,  -9574,    739,   2642, -13569, -22361,   2678, -18747,  -1088,  -8806,  -1548,   1264,  12353,  20802,  -5569, -20193, -19305, -13513,    410,  -1741, -19042,   2703,  18369,  -8708,  -9301,    864,  22236,  22038,  -9165, -19892,   6300, -14623, -18583,     50,  -5660,  -1756, -12373,   3072,  23949,    980,  -9708,  12380,  -6015,   -572,  19402, -12871,   2607, -21645,  -6537,  20131,   4250,  -8679,  -1459,  -8115,   1137, -11373,  13178, -19305,    365,   4545,  19061,  18868,   9821,     42, -10084, -10291,    171, -11621,  19534, -10396,  -3469,  -3039,  -6021,   -210, -16776, -21679,   1403,  11845,   3626, -13230,  -5860, -15115,  15481,  21943,  -5555,  16597,  20631,   4282, -14592, -16272, -16178,   5241,   -747, -20226, -22465,  10482,   9701,  18185,  19828, -10750,  20646,  -2462,  20589,  13484, -17510, -21227,  20047, -16078,  -9407, -21202,  15900,  -2867,  20803, -20245,  11701,  -1019,  -8117,   3288,  10484,  22293, -15391,  18967,  19540,  -1087,  10932,   -708,   2074,  21180,  20611,   8829,   7157,  15195,   9322,  18693, -16354, -15889,  -1821,  -6798, -19204,   6711,   1487,  15078,  21322,  11570, -20664,  16041,  -5372,  -6561,   6634,  21650,  -7664,   9129,  19978,   2233,  -6678, -18225, -11485,   1037, -13818,  -3479,   -374,  14927,   1813,  -3908,   1304,  -1043, -18035,  -9280,   3992,  20407, -22248, -11534, -18915, -17175,  16509,  -6881,   9092,   2267,  22674,   2202,  -9686,  15882, -14419,  22512,   4314,  -2782,  -8426,   3123,  10029, -20336,  19667, -18802,   9789,  -6547,  10954, -16579, -18596, -19029,  -2036,  10159,  -9182,  -8842,  -4481,  -8053,   4810,  20664,  11840,  -3059,  10469,  18709, -19818,  22518,   5055,  -6021,  22642,  17790,  10885,   9706,  -1084,  17109,  -6214,  -3034,  19692,   4311,  18600,   -504,  -1494,  -8527, -14417, -11433, -10444, -16560,  19843,  20787,  21923,   1270,  11838, -14424,   1905,   8400,  -3493,   6694,  16144,  15734,  23563,  12187,   7802,   7194,  18103, -11961,   2721, -21902,   6964,  -4821, -22852,
        -18443, -20336, -13401,  19040, -21294, -20662,   3653, -18430,  -9989, -10960,  18016,   1690,   7855,  -6206, -22146,  16796,  -1335,   1302,   7812, -22185,   -276, -14868,  16565, -13422,  20605, -19979,  14290,  20102,  16544, -11020,  14606, -21338,  16259,  11082,  -3794,  21261,  -2961,  -8838,  -1792,  10066,  18029, -11681,  13499,  -7105,  -3134,  16995,   7456,   9928,  -7649,  14835, -22999, -19481,  15958,   7559, -13236,     32,  19908,  -6365,   1611, -16112,  -8165,  18104,  12458, -13638,  10708,  -9578,   4217,  15089,  16196, -17197, -13827, -14939,  -1108, -16243, -13113,   -421, -13291,  -3111,  16461,  -8003, -16881,   8321,  14721,  -2069,   6433,   7004,   4549,  14433,  15617,  14909,  -8125,   4922,   2794,  14026,  15771, -20764,  18222,  -7305, -21775,  11539,   8413,  17295,  14383,  12555, -20332, -20241,  -7610,  -2010,  18675, -12430, -16437,   9637,  18634,  -5546,  -2410,   9978, -16044, -16896,   1955,   -457,   5217,  14467,  15523,   2347,   6576,  18884,  -9407,  16549, -12750,  -7986,  -3508,  22226,   1393,  -6862,  -1088,  -6232, -12328,   2970,  -1698,  19246,  -2282,  14970,  -3908,  -7704,  15163,  -1957, -19533,  23422, -13752, -21842,  -5539, -11867,   4707,   3279, -17559,  -9956,  17803, -19092,   4108,   9079,  22947, -13146,  -3641,  20956, -17951, -17287,  10382, -12825, -19926,   6948,    -76,   5827,  -8759, -12226,  22974,   4809,   4494, -15835, -14579,   6679,   6372,  -2330,    132,   8521, -17739,  -1184, -22014,  21282,  -9045, -20256,  -6254,  13157,  -5443,  13401,   3183,  -2612, -20233,   5289,   2641,    571,   2494,  17278,   6769,  17805,  -6808,   4358,  -2137, -23009,  17449,  -5709, -15242, -12177, -20693,  20914,  12367,  23230,   8610,  17105, -20975,  20494,  -2482,  12527,  22478, -18138,  12999,   1143,  12604,   9820, -16650,  -7087,  -2339, -20568,  22085,  -1338,   8695,  -1826, -14287, -20311, -22779, -14775,  -8760,   8751,   5732, -13702,  -7885,  -9195,    292, -12852,  -8559,  -9282,    907,  -2330,  19323,  -9897,  11197,    754,  15487,  -5945, -19138,  20962,   7150,   4683,   -419,  10131,  14134, -14684,  10953, -22459,   3331,  -7891,   1114,   3836, -11117, -17577,  20268,  -1662,  10460, -10765,  22094,   6181,  16102,   3086, -12803, -10820, -20090,  -2639, -20614,   5241,  -8783,  16591, -15134, -21015,   6840,  12136, -22050,   1296,   6862,   5421,  -2678, -11706, -14785,  19219,   5963,  -7594, -14042,  19901, -10323, -21080,   1657,   4957, -22268, -18712, -19681,  20849,  11117,   8863,  10828,  11428,   8903,   6021, -16483,  -1986, -15472,   1451, -21158,   6815,  13344,  18668,   -352,  15527,    203,  -8728,  20077, -11385,  21157,   1955,  11264,   4266,  21497, -10065, -23152,  -8498, -10944,  14782, -16952,   4996,  19687,  -2934,  -6860,   2490,   8270,  -8286,  -3549,  19944,  11287,  18214, -11470, -11280,  22398, -15020,  -7897,  -1227,  -3218,   5244, -18034,  -4808,  12027,   6117, -10094,   7246,  18526, -12092,  -8148,  -2401,    786,   5448, -11493,   4578,  10715,   -892,   3482,   2300, -19497,  -7060,    -29, -13920,  15601,   1506,  11688,   5315,   9972, -17587, -17337,   4683,  11957,   2919,  -1446,  -1117,   -654,   7487, -14911, -11224, -19265,  -7332,  13080,  17491,  11717, -11897,  10155,   3645,  19524,   4544,   -955,   6880,   6138,  14367,  17290,  18639, -19010,  18934,  -4006, -18793,   8360, -16388,  -5156,   6524,   8241, -19444,   9331,   9018, -12148,   5938,  -9459,  22422,   5058,  -6526,  -5961,   9013,  -2573,  -9462, -18536,   6971,  13603, -15534,  -4642,   8493,  13955,  -1022,   1028, -20012,  11057,  17066,   4243,  15950,  -9497, -13268, -21269,   7563,  11846,  -2899, -17535,   1194,  12045,  -8247, -17802,  -4915,  -7323,  19427,  -3402,   6047,  -4762, -22047,   3747,  23599,   2256,  16413,  -3141,  -1190, -17543, -11059,  -2715, -14367,   8985,  -7080, -20339, -11874, -20680,  14216,  -6389, -17909,  -2507,   6952,  17441,   4541, -13124,  -4054,   9386,  13993,  -2968, -11586,  16314,   2362,  14054,  19570,   2847, -22190, -19510,  13297,  22667,    235,  -5185,   8467,
         -2567,   6227, -21647,  23206,  21513,  22036, -14962,   5660,   8028,   -161, -15251,  15614,   3420,  11713,  -8646, -13367,   8990,  -6870, -18009,  -2030,  23471,   9363,   5368,   3459,   -754, -17947,  -1865,  11524,  12192,  10289,    521,   1168,  21451,  10265, -14762,   4912,  -2115, -13128,  12341,   1526, -17100,   6290,  -8117,  10310,  21849,  20188,  22766,   6252,  -2573, -15430,  22379,  10038,   4456,  12434,  -3671, -17341,  11242,  16007,  -1577, -11447,   6231,  -8466,  19802, -15427,  13622,  -1618, -22035, -13430,  -8780,  17613, -14020,  14754, -21507, -23058,   9908,  12455,  11347,   7725,  15498, -16998,  -6109,  -4237, -15674,  14204,  16569, -22901,   1907, -10468,  12206,  13716, -20318,   3316,  21689,  17459,   4450,  21489, -13630,   8029,  14854, -18660, -21431, -19578, -21035,  17444, -17375, -10647, -10798,  -7103, -15216,  22880,  12576,  20314,  -7850,  -5739, -18749, -13344,  -2606, -18582,  -1738,  -5669, -22254,  18520,  -7042,   9908,  16475, -19961,   6468,  14484, -12250,  -3813, -20952, -18690, -22205, -23179,   1181, -12878, -16988,  18473, -11129, -21132,   2630,  -4624,   4470, -18899, -16828,   8308,  19403, -16392, -21450,  18934,   -223,  20316, -14922,   1473,  -2795,  -6486,   3386,  -4709,  14429, -21038,  -9171,  13292,   9620,   5306,   1142,  14160, -17493,  22772,   5468,  -6475, -11349,  -6291,  -3333,   3923,  -5943, -11392, -13726, -10095, -18146,   6398,  18319,  13198,  11073,   5717, -11307,  12213,  19688, -10859, -16153,  -6808,  12081, -14491,   1747,  18171,  -4391,  14131,  16948,   -133,  19469,  21572,  -2845,  14705,   7093,  -4146,   3469,  -4983,   5126,   9283,   1819,   2895,   9206, -11335, -17347,  -4067, -23027, -16320, -13691,   7743, -15103,  15377,  22549, -11280,  14863, -13012,  18281,  18437,   -380,  10973,  -6351, -14426,  13442,  10179,   4082, -21446,   5286,   8217, -20943,   7980,    445,  -2750, -20720, -15985,  -9949,  -3501,   1733, -21399,  19904,  10194,  17078, -21958,  16849,  13196,  15187,   8630,  -3156,  16640, -12428,  -6837,  12985, -12489,  20005, -19510, -12312,  -2081,  -2429,  -9826, -13391,   8764, -18643, -17960,  -8803,   6266,  10301, -17846,   5873,  16438,  24153,  17108,   1887,   7958,  -3483, -18210, -19312, -12312,  22932,  12016,   3712, -21250, -18072,    230,  11068,  11927,  21985, -15799,   6651, -19238,  -3690,  14455, -11250, -17826,  21673,  -1994,  -9285,   2592,   5180,  -7612,   1243,   7775, -14545, -11678, -16506,   6940,   1450,   5299,  17668,  10040,  15867,   4873,  -5998,   3048, -13061,  -2883,  19235, -17706,  -7298,  18432,  17468,  -6780, -16383,   6481,      9,  22675,  -7698,  -5824,  -9601,  14815,  22217,  22958, -17229,   6961,   4956,  15683,  18701,  -1309,    187,  13182,   3773, -10602,  18638,  22035,  12793, -18962,  -8227,  22073, -18901,  23279,  -2977,   4729,  21524,  17546,  -4125,  -9416, -22142, -11506,   8615, -14951,   8930,  -5710,  15323,   9422, -12633,  -6958, -11003, -13717,  -6238,  -8709,  -6411,  -8139,   3269, -14994,  12627,  13192, -10747, -21632,  21971,  16182, -17709,  23865,  22407,   6970, -21057, -10076,  -4995,   4032,   2211,  16075, -11708,  10446,  -1993, -11876,   3434,   9139,  16097,  10598,  21226,  22463, -21846,  20697,  18005,   7692,  -7760,  12896,   9821, -17133,  22142,  -8100, -12293, -17628,  -8927, -21472, -10831,   3422,  -9392,   4185,   5803,  11660,  -2814, -15680,  23969,   9383,   7174,   -574,   7785,  -5925,  15869,   8782,   8559, -16424,   3380,   -604,  12074,   2915,  -3544,  14166,  23178,   -734,  -8103,  16240, -13280,  14468,  20652, -18871, -17260, -17642,   5912,  -5135,   -364,  10787,  -2598,  -9084,  15812,  -8189,  -6462,  -8926, -14855,   7813,   5283,  -2166,   6898,  -9975,  11869,  16553,  13862, -14798, -17945,  21962,  16263,  12764,  15476, -20269,  17453,   6281,  -7361,  21781,  12722,  17588, -13324, -20557,   8922,  15147, -22227, -10564,  -2124, -16746,  19359, -20512, -13756,  20533, -15498,  -3115,   3821,   2684, -13798,  17493,  17439,  -2419, -18516,   1626,  16982,  17680, -20501,   2049,
         -1073,   6774,   6763, -16319,  22823,   6712,  11798,  22297, -19182,  16427, -13993,  -2349,  13798,   5594, -19770, -19281, -18098,  14670,  -7327, -18130,  12597,  -1194,   7765, -17043,   4935, -17039,  10567,   1920, -12740,  -4506, -16949,  12666, -13531,  -4119, -22775,  12300, -14915,  22412,  -9561,  11919,  -7364,  22988,  21173,  19658,  15028,  18072, -22097,  15477,   4584,  -3087, -13071,   2999,   4368,  -5252,   4061,  19398,  21718,  -6547,  -7372,  18961,  -3939,    289,   4745, -18777,  -5581, -11019,  -9741, -14466,  16899,  -8350,   3002,  15181, -16024, -15349,   5182,  -1251,  11992,  23129, -18180,  15818,  -7327,  22557, -21258,  22579, -20197,  21636, -14876,   -368,  -4956,   1055, -15651, -12872,  -4054,  12093,  17156,   2704, -18385,  -1742,  -6479, -14588,  16968,  -4518,  12973,  20065, -13296,  -8032,  17157, -13346,  10659,  16216,  14920, -16417,  15940,  -9077,  10353,  21041,  12091,  14111,   4789,  22083,  -9064,  17765,   4683,  13864, -14853,  15699,  11382,   8147, -14332,  -8511, -15485,  13275, -22260,  -6560, -16907, -12918,  15872,   5006,   8245,    -76,  -3437, -10956,  15314, -17176,  10682, -16427,  11571, -13347,  -7281,  16408,   1213,  23607,  -5296,  -5497,  -7188,  -7663,   1600,   5336,  -5332, -17377,  23275,   -763,   7167, -11433, -21301,  -8050,   -822,  -7083,   4172,  -2052,  20614,   5007,   1259, -21819,   -686,    396, -15758, -14795,  11453, -20647,  18568,  22104, -20704,  15682,   3149,  19269,   7512,  -3302,  -5992, -21481, -12621,  17163,     33,  14399, -16781,  16428,  -1282,  -5637,  10976,  12464, -14328, -22463, -16524,  17655,  13837, -14546,  16470,  22511,  18834, -18811, -19043,  -7560,  -3538, -12152,   3357,  13021,  -2826,  -8242,   5004,   3505, -17351, -15656,  -6521,  14491,  -1218,  18104,  13177,   4168, -19892,  10893,   9436,    653, -17075,  12519,  15224, -17552,   4911,  12388,   8188,  12585,  -5905,  -2531,  22051, -11230,   -333, -11185,  -6971,  15196,  16603,   3031,   8626, -12156,   6429,   1859, -15369, -13806,  22368,  14584,  19021,  16906, -10661,   9300, -20707,  18539,  -7072, -11525,  -6114,  15523,  14465, -19878,  22122,   1121,  19424,  22339, -13489,   2308,   5203,  11511,  16027, -17049, -22734,   4218, -23538,   8930,  10753,   5470,  13398,   1041, -13408,    467,   4560,  18522,  -3618, -18345, -11049, -18463,  -9530, -13408,   1078, -17998,  -8265, -17218, -10923,  13336,  -5939,  17444, -17997,  16860,  -4195,  21720, -10043,   1480,  20415,  18150,  -7454,  -7935, -11378, -22108,  12833,  -6924, -21636, -16628, -14265,   3222,  -4820, -19551,  -1408,     17, -19994, -12115, -21393, -18426,    340,   5420,  -6812,  11787, -11160,  11526,   2544,  10879, -16066, -11172,  -5949,  -8060,  -5862,   3447, -12825,  -7242, -20588,   7986,  10015,  -3315,  -3905, -19296,   -539, -15656,  18700,  -1988,  -4849,  11408, -19982,  -2637,   3056,   1450,  20241,  19601,  11525,  14448, -15322,   9626,  -7505,  15313, -17154,  11613, -20938,   -371, -18020,  -8562,  10424,   3743, -15432,  -3959,  17292, -13402,  -6965, -15605,  13922,  12797, -18506,  -5388,  -3693,   9666,   8326, -12696,  13030, -14903,   4267,  20855,   8692,   3965,  12746, -21813,  -7732,  -3308,  20983,  -1222,  -6995,  -7410,  15943,  15224,  16268, -22096, -13677, -23121,  -7180,  -1040, -11395,   -198,  17994,   5040,  21498,  -7150,   4355,   -305,  13718,  22201,  17208,   5922, -10738,  15679,    133,  21141, -22013,  21414, -21511,  -6408, -16173, -21637,  20635, -15910,   -677, -22164,   2411, -17711, -17827,  -1507, -12061,  -2819,  -2258,   2051,   1259,  12402,  -1282,  11498,  -3165,   6920,   2228,   8276, -11768,   2909,  -4315, -12596,  10070,  -5723, -13806, -11066,  16081, -13359,   7119,   4834,  13744,  -7579, -14786,  -4799,  17007,   4776,   9888,  17304,   5061,  10197,   8919, -12376,   3918, -22767,  17158,  19286,  12351,  -4015,   9666, -16530, -18752,  -1837,  10667,   4529,   1009, -10849,    343,  -9576,  13582, -19952,  13267, -21428, -19612,  -8689,  -1908,   4014, -17520, -14421, -15888,  12198,   2730,   4807,
         -9311,   2285, -17535,  -6639,  10497, -19412, -18814,   3648, -21519,   7356,  15230,  -1177,    217,  -6302, -15364,  -9388,   9512,  22488,   1476,  -4819,  -1252, -10702,  18904,  -1688,  -3653,  -3591, -12077,  -4662,   3123,  12206,   7223,  -8723,   2412, -18255,  -5253, -11174, -11799,  20070,  -5772,  -8630,   8133,  14252,  18558, -20059,  10241,  -8198,  -9529, -20969,  -9050,  -8362,  11912,  14219,   5187,   6385, -21100, -11889,  -6073,  -9587,   2447,   5560, -10217,  17549,   4089,  -6396, -15242,   7634,  -2966,  -9934,  -8845,   2837, -10047,  21681, -10072, -18446, -10200,  20466,  23782, -17302, -17083,  16959,  -2539,  18900,  18566,  16148,  19186,  10730, -21813, -14225,    790,  -4848, -18892,   2338,  15869,  20452,   2984,   9836,  21427,  -4614,  13131,   -842,  -9679, -19181,   3994,  -2334,   9008,  21982, -22065, -11074,  13769, -13508,  -2639,   5041,  -3485,  14481,  15955,  19015,  14887,   4708, -20244, -17326, -11981,  21229,  -3431, -17285,  19262,  -6044, -18431,  22125,   3356,   2702, -13214,  -8593,  24032, -12519, -22139, -21724,  11421,   4769,  20273,  19569, -20548,   2889,   4417,  -3128, -15216,  16526, -14696,  19868,  21063, -16751,     43,  15642,  -7451,  13476, -19050,  13716,  15209,    172,  -6975,  21968,   3749,   5465, -20968, -19953,  12247, -19558,  10401, -18859,  17594, -22570,  -5156,  -7500, -13220,   7590, -14008,   2969,  12175,  14329,  -7834, -13908, -18201,  -9986,  -2132,   2516,   1488,   4235,  -5152,  -5655, -14704,  23387,   3724, -18774,   4007,   3990,   9222,   3476,    662,   4966,    433,   4735,  -3490,  16173,  23679, -14379,   6820,   3997,  -2213,   9979,   6065,   2014, -22268, -14062,  23988,  -9745, -10538,    105, -12052,  19188,  10014,  14367,   7475,   8298,  -8163,  19130, -21251,  16498,  20146,   -440,  16477,   9010, -14518,    789,   3177,   6345,  -3427,   2754,  -5125,  11884,  23108,  23034,  15475,  -3467,  16856, -18124,  22754,  -8930,  -8089,  14886,  15141,   9193,   9685,   3538, -21340,  -6280,   4736,  19040,    706,  19489,  -8576,  -2081,  14700,  -9441, -18536,  19671,   3840,  15990, -17517,  -4430,    -20,   -195,   6572, -16193,  -2804,   6129,  13121,  -3528,  20462, -16961,  20611, -16935,  16585,   6095,   -429,   7849,  11546, -17374,   8158,  11418,   2032,  22167,   9695,  16691,   4844,   7853,  19290, -14309,  15472,   1179,  -7340, -18088,   5378, -14488,   3224, -14079, -17504,  -3853,   6937,   6403,  -9577,   5269,  -6576,   3650, -18524,  16399,  13911, -22934,   1277,   -808,   9042,  17426,  11997,  21341,  -8996,   1954,   -504, -14456, -14447, -21750,   6905, -14178, -18806,  -7361,  -9186,  18325,  15616,   8569,   3756,  -8011,  -1408,  -4896, -20032,  -9146,  20497, -21096,  -3230,   2515,  11869,  -3442,  11699,   2506,   3410,  12143,   9039,  12236,    150, -11716, -18210,  -5059,   8404, -13501,   4768,   8903, -11315, -14388,  -1910,  22048,  -9154,  -4311,   8129, -13568, -11846,   1959,  -8617, -19455,  13330,   -244,   -162,   5182, -17721,  20737, -18112,  -6283, -14855, -21288, -16006,  13776, -15765,   1833,  18353,  -6236,  20878, -20025,  -6492, -19352, -21566, -16921, -13780,    887,  -5815, -15570,  -4120, -21663,   5963,  11809,  17689, -18532,   8505,  13999,   1386,   2320,   9039,   7803, -16494,  19983,   3601,   4274, -19730,   5283, -18450,  11105,   3275,   7098,  22649,  20831,  18316,  11525, -10697, -19445,    800, -15242,  17782, -19764,   -765,  20785,   8179,  20480,  12962,  -3464,  -2237,  -9351, -17377,  -3176,  10319,   8109, -12852,   6614,  -6779, -22648, -18728,   1736,  21009, -12997,   5338, -11971,  17050,  -1042, -22151,    224,  19680,  12580,  10827, -16865,  12489,   3711, -16616,  18724, -20234, -12302,   6780,   9748,  22506, -11732, -17162,  22930,    593,    437,  13174,  -5475,  -3026, -18419,  19508, -10247,  20069,   3915,  17639,  19244,   9574, -22890,   9152,  21770,   7568,  19311,    206, -16864,  16224,   2324,   3054, -21395, -11194,  -5954,  21167,   -962,   1464,  22127,  -6733,  -3398,  18420, -16288,  -7474,  17852, -21630,   4727,
        -17672,  20118,  19688,  20971,   7889, -13132, -17917, -22197,    364,  -3991,  21221, -21139,  21504,   7891,   1862,   9242,  -9901,   1828,  -1719,  16561,   1412,  -2909,   2419,  -9875,  -2647,  14567, -18393,  -8920,   3986,  -9039,  -6911, -15383,  23440,   7179,   3305, -18789,  -4415,   6937,  -7182,   1010,  -3097,  13409,  -7654,  12811, -19151,    189,   3607,  -4478,  20610, -14273,   7121,  13865,   8328,  13959,  16720,  22570,  -6894,   8988, -19757,  13266,  17247,   9920,  17481,  16551,   1074,   8546,  18898,   5591,  23317, -13790,  17373,  -1424,  -8258,   1603,   2899,  12620, -14013,  14740,  -7088, -17603,   8312,   9119,    307, -20217,   4537,  -9075,   5808, -14204,  20955, -14337,  17338,  17237,  -6853,  -9976,  -9718,  12602,  19784,  -3537,  -6354,  -5227,   7925, -13205,  16527, -22097,  12304,  20926,  -1915,  20720, -13941, -14237,   2990,  -6937, -20144, -12134, -20606,   3067,  11458,   5906,  -9548,    730,  10092, -19578,  11727,  11293,  20466, -19443,  12108,  13116,  -8864,   3750,   9337,  -5041,   6520, -13817,  -7536,  20053,   4464,  21541,  11250,  13241, -14094,  12600,  -3598,   9758,   5727,  15458,   4038,  17980,   3165,  17329,   7563,  12189,  -4365,   6044,   8443, -11684, -11346,   1999, -20460,  -7305,   1315,  -2791,   7148,  13368,   3751,  -7942,  11057,   -685, -18547,   3033,  -7651,   8790,   8410,  -8485,   5862,  -7120,  -1731, -16081,  -4481, -17255,  20637,  -3321, -11063,   7393, -13731,  -6892, -19576, -12686,  -8937, -16451, -15000, -21489,   5187, -18554,  -3970,  17700,  -9955,   9433, -16153,  -2884,  -8841,  10205, -14911,   9839,   7614,  -3800, -20438,  14520,   9117,  -3859,  -2082,  22043, -15495, -18332,  -4328,   5762,  -4152,  -3910,   7174,  10275,  19110,  -3733,  -2333,   6820, -21134, -20737,  11688,  13297,  11997, -22270, -22725,   -820,   4049,   7061,  14194,   6862, -11667, -15517,   -618, -15088,   -366,   3771,  22555,  -3124,  22505,   9204, -13954, -19118, -20119, -14430,   -165,  21889,  -1794, -18146,   5392, -16010,  -8660, -18180,   4114,  13450,  -5871,  -7452,  10014,  13457,  -6312,  -6576, -14992, -15242,  12417,   5602,  -7253,   6226, -15817,   5296, -13914, -22301,  -1115,  -3948, -18391, -19182,  12308,  14378,  22277,  13232, -22708, -14641,  18304,   9553,  -4791,   4550,  10498,  -3598,   9561, -11099,  12739, -20716,  -1066, -16664, -18368, -19658, -10459,  10942, -15002,   3788, -16779,  -8663,   6360,  -8657, -16764,  -3504,   6664,   1486, -10160,   7755,   4488,  23280,  -8058,  -1779,  -5671,  12881,   -354,  -6721,  13496,   3148,  22910,  15255,   1617,  15424,  -7238, -15513,    236, -22299,   8915, -14219, -22042,  20407, -11944,   6218,  12534,  -7407,  -3229,  11659,   9029, -16493,  12577,  19202,  19623,   -439,  13136,    295, -14185,  16074,  17787,  23192, -11629,  12140, -13984,   -350,   1445,  21716, -21894,  20207,  -4906,  -3710, -22761,  12254, -16597, -12211, -19133,   9610,  -5582,  12818,  -6036, -16215,   8418,  -5924,   3995,   8142,  -8188,  -7595,  -1081, -20969,   9744,  10052,  -3893,  -5078, -18417, -14354,   1504, -11800, -18660,  14320,  15161,  -1291,  21563,  16756,   7894,  20653,   1411,  -1688,  10277, -10848,     83,   5376, -22541, -16600,  20781,  -2834, -15077,  -6805,   -655,   7268,  21900,  21817,  -1686, -17699, -17582, -13740, -17379, -19783,  -7139,   1324, -13130, -16510,    894, -16918,   -433,   4553,  23449, -22380,   3529,  12764, -16621, -15520,    337, -18778, -19372,   4471,  -2714, -17982,   -521,   5006,   5632,  -7452,  13004,  14581,  22302, -18637, -17730,  15614,  21815,  23208, -17030,  19768,  21785,  -5456, -20991, -21873,  -3035,   7086,   5848,    -82,  -5231,   2217,  15691,  15468,   5301,  -8459,   2769,  -9941, -19201,  18421,  -9342,   8724,  22067,   7696, -11932, -12128, -17247, -17685,   -668,   6757,   8539,  16493,   5836,    461,  -1120,  16665, -16531, -19332,  -8953,   4250,  -7641,   2161,  14314,  10116,   4271,  -1069,   -132,  -8329, -20842, -19026, -13362,  22845,   1985,  -5903, -21103, -14699,  13874,   2205,   -392, -11861,
          9973,   5328,   5085,  17999,  13693,  14828, -21543,  23372, -23110,  -9062, -19274,  -4571,   9746,  -3460,  14975,  16401,  21781,    376,  16915,  -4799,   5811,  18715, -17819,   9913,  14179,  12267,  -7144,  14301,    128,  21012,  15508, -21912,   3145, -12298,   -273,  -3477,  -6624,   7370, -23054,  -6345,  20204, -23343,   1822,  -1265,  -2161,   6872, -15666,  -7605, -10034, -13487,  18609,  10453,    101,    258,  17430,  16659, -18846, -20121,   5864, -22110,   7212, -12316, -12195,   9499,  -9707, -21089,   6103,  -5799,  -2585,  11754,  22635,  -8871,  -3934,  20519, -13977, -19694,   6393,  11273,  -2437,  -3060,  11725,  10610,   -240,   1619,  16429,   8041,   2723,  -8735,  -2540, -12314,    446,  14964,   1620,  -5701,  -4459, -11040,   -902,  10483, -20069,  -3549,  -3759,   -451,  18118, -15692,  12347,    440, -15197,  12496,  -7183,   -372,  -9862,  13312, -21058,  -6692,  16508, -12705,   8677, -19448,  -4297,   9171,  16629,  11817,   -551,   4542, -18440,  -9531, -18129,  14067, -12515,  21767, -18213,  -5550,   2868,  13524,  -4045,  -5784, -16647, -21717,   6066,   2344, -21946,  -3352,   9786,  13835,  -5711,  13743,  12749,  -5808,  -4880, -19986, -20038,   3517,   4249, -18078,   6902,  -9453,   7563,   6431,  -7433,  19515,   8465,  20135,  20208,   2608, -12927,  -9049,  -2727,  11116, -11977, -18821, -20581,  17942,  -1158,  11039,  -2630, -18081,  15680, -16584, -22720, -10576,   9434,  19299, -18012,  15484,  20611, -14335,  -2119, -13506,  11016,  20506, -14207,  -1538,   3672,  13626, -17643,  21247,  13376,  10434, -15659,  16076, -17914,   9662,  18630, -14375,  15835, -18574,  15949,  -8999,  16123,  -6196,   7563,   -859, -13952, -21048, -12342, -11650, -16776,  13981,  -8318,  -2481,   5956, -12873,  -5340,  18380, -14619,  -6402,  -5502,  -1812, -20807,  10718,  14417,  15638,   4475, -15700,   4444,  18034,  -6033,  16189,  10936, -14852, -17321,   3903,  -9904,  21033,   2685,  -4014,   5422,   7572, -13367,  14063, -15825, -20742, -18550,   5305,  11666,   2410,  19791, -18877,  -6703,  -5845,   7324,  -8815,  13548,  -7547,  10773,   4497,   1153, -14499,  19187, -10905, -13346,   3507,  -4316,   5853,  -7519,  15839, -11709,  12357, -22973,   -429, -12628, -10693, -19342,  -1808, -18369, -21720,  22148,   6465, -17069,   4530,  -5280,   8973, -13136,  -9956,   6374,  20994,  18299,  -3362, -17852, -14607,   8488,  -4517,  13327,  -4324, -11464,    -72,  20822,   -878,   7612,  -5124,  10323,  -6881, -13547, -21835,    880, -13538,   -287,   6457,  12743,   9855, -21115,  22765, -10530,  -2221,   3898,  19222,  -9561,  19205, -13960,   9676,  19450,   6616,   1423,  -8994, -11302, -17204,  -6730,   5177,   6726,  16358, -19916,   7366,  -2148, -17598,  12728,   3797,  12202, -18509,   3238,  -7030, -21105,  10733,   -955,   7187,  14597,  20115, -21466,  -8560,  20130,  -6454, -16079,   4582, -18904,  -5383,    258, -12067,  13409, -21503,  -3828, -19120,   9425, -19058,  10447, -10406,  -6568,  10568, -22153, -19995, -18639,   2556, -19911,  -6013,   -637, -14901, -20254,  22692,  20507,   4356,  11495,  -3587,  13030,  -5688,   1745,   8235,   7675,   -286,  12402,  19546,   5088,   7425,   5727, -15845,  12216,   3125,  -1057,  -8213,  -9296,  18480,   4338, -23389,  18169,  18111, -22441,  -3563,  -9396,   2392,  -9533,   2717,  12371, -20251, -19446, -11396, -22234, -23303,  21108, -20250,  13122,  11563,   -513,  19166, -18855, -15575,  -3968, -20616,  -1272,  -4318,   2630, -12668,   -209, -20041,   5266,  13745, -13582, -23547,   1392,  14695,    916, -13577,   1556, -20660, -16916,   1828, -14474,  15509,   -593, -14242,  -8423,  10696,  19492, -22257,   9309,   9411,  22910,  11779, -11820,   -108,   4820,  11849,  -1354,   4525, -15875,  22024, -13957,  -8105,  -8066,  16840,   6856,  16620,  -9250, -14441,   6499,  -5952,   9850, -20024,  17153, -13868,  -4753, -21421, -21129,   1654,  -9878, -15460,   8219,   8776, -23031,  12985,  21503,  -2611, -14092,   5730,  19067,  10391,   8086,   7996,  -5236, -17692,    755, -16141,  -7208,  13340,  -5204,   8128,
         12566,   6544,  11765, -17523,  20409, -20584, -19431,  20777,   1641,   9119,  11593, -11630,   9355,    857,   7213,  13029,  -2407,  16764, -10765,   5697,  14711,   7173,   6839, -13445,  -7592, -15352,   -973,  -8332,   4822,   2004,  -8508, -17397,  -6924,  14847,  15765, -10952, -18687,  11399,   1156,  17774,  -2625,  21164,  -6317,   8902,   6816,   6089,  -6987, -16082, -13508,  22406,  -7570,  -6325,  21288,   7310, -18706,  -9920,  17959,  22856, -22356,    559,  12016,  17362,  20894,   6522,   8910,   8422, -11250,  11536, -15003,   7498,  20062, -20606,  18611,   7965, -22756,  21880, -16476, -14253,  -9819,  15541,   7362,  -6094,   5354,  15216, -20899,   6677,  -5514, -19490,  18954,  22062, -17631,   7889,    110,   4196,  -3376,  17145, -18312,  -6529,   4100, -13188,  10131,   6604,   7423,  11965,  -1660,   4672,  -8747, -15835,  11407,  17157,   4683,  11570, -14442, -16360,  -6100,   7461, -17262,  -3526,  16051, -17079,   5352,   6749,  14000,   5534, -20866,  14555, -21212,  18102, -15643,  -5945, -10744,  -2689,  16650,  23282,  -4124,   4401, -22640, -13660,  22116,  -5084,  -3055,   9733,  11762,  22371,   4711,   6689,  -6391,   8596,  -4158,  -2162, -10706,  16571,  13561,  21517,   3826,  12513,   7148,   1105, -19991,  12220,   2131, -11964, -13166, -14647,   9780,   7781,   8906,    239,  15777,  -2005, -11783,  -3976,  12993, -12237,  -9432,   2417, -16584, -10122,  -2789,  -4449,  18168,  16444, -12711,   3485, -18511,  12747,  19678,  20637,  15716,   4837,  -3064,  22076,  -3029,   9012,  20895,  -3569,  18647,  13634,  -7701,  -1864,  13563, -18761,  -4863,   9509,   7252,  -1850,  -3783,  22991,   3652, -11837,  13911,   1225,  19553,  11843,   2345,  -4849,   2673, -15627,  -9173,  19072,   2049,  23588,  14652, -13249,   7036,   1665,  16013,  24297, -14175,  18806,  20623, -15569,  15177,   -130,  10737, -11487,   4052, -22062, -21143,   -816, -14016,  21425,  10945,  14901,  14556,   2462,  -9866, -15351,  13145,  14512,  -2233,   2506,  11738,  21179,  17598,   1186, -16849,   4530,   3434, -19271, -20036,   6326,  -7211,  21330, -13439,   6490,    252, -16041,  -3750,  -2859,  11406, -13788, -12897,  12832, -14659,  13724,   1992,  18723,   6212,  13075,  -1142,    636, -24123,  -8395,   6591,  10260, -15381, -21786,  -3349,  -7298,  14970,   7169,   8073, -15990,  -5340,  20052, -15896, -15858,   8857,  19621,   -296, -21107, -13480,  21090,   2200,  21984, -15035, -17897,  -6342,    787,  15025, -13337,   9944,   5475,  12892,  14319, -18580, -13950,  -3416, -14141,    183,  -8559,   -147, -13037,  -3384,   6783,  13342,  -2423,  -9024, -21863,  17070, -14543, -17216,   8112,  10884, -21740,  18125, -21693,   4332, -13466, -11542,  -7884, -10738,   3471,   1802,  20606,  14237, -18790,  20500,   7935,  -3067, -23501, -20859,  -9799, -13733,  11600,  -7985, -16560, -14212,  -5767,  15828,   7122,  20267,   3409,  17204,   9810,  11542,  -7030, -22425,  17985,  10385,  -9987,   3052, -19981, -21072, -16766,  13365,   7289,   1573,  -6375, -15220, -13509,  -7705, -16221,  18656,   4640,  -1274, -22489,    542,  -6268,   7697,  -4457,    763,  21717, -14946, -16622,   9272,   2947,  12324,  15314, -12441,  -4724, -11117,   6546, -14352,   6548,  -3118,  13981,  -3065,  20930,    926, -12707,  13961, -22879, -12012,    366,  -6118, -17087,  -9007,  -7787, -14371,  16156,  11095,   -917,  -6071,   6940,    559,   9473,  12157,    748, -21627,    813,  11602, -22670,   9988, -12140,  -1555,  16238,  -8985,  16171,  13887,   3565, -16769,  -7594, -15382,   7678, -17089, -16664,  15341,  15208, -20857,  20148,  -3309,   7139,    124,  13759, -22562, -21794,  -5929,  21033,   8068, -18877,  -9683,  -5255,  13209,   8685,  -2973,  16149,   4902, -13780, -13215, -12052, -14038,   1683,  21613, -22504,  14048, -15711,  18409,  16774,  17804,   -291, -23141,  -8090,  -7425,   1525,  15619,  15282,  16955, -11448,  19427,  12700,  12326,  13356,  16872,  -4049,  22330,  -8009, -13909,   7306,  11572,  20863,  -6862,  16610,   8877, -13956,  -8890,   4664, -20702, -12255,  14704,  -8070,
         -9672,  10744,  -5853,  -2105,  12744,   6717,   6436,   4216,  10922, -12102, -12361,  -2082, -10138,  -5000,   6218,  23733,  22024, -11157,  -2111,   7177,   1679,  19335,  -4340,  22753,  22863, -20873, -20929,   7970,  -7282,   8298,  22905, -12875,  -1482,  21748,   6127,   9503,  -1152, -16573,  -3720,   9443, -13422, -20300, -20528, -15662,  10134, -10216, -19139,  11954,   2870,   4229,  16796,  13991, -14502,   2977, -18866,  -7995,   6703,   3064, -18440,  -4739,  15731,  12357,   4715,   5283,  -8061, -21955,  14880, -10444,  -1613,  18232,  18245,  21490, -19027, -19240, -10349,  16122, -16689,   1769,   7330,  17095, -13547,   8778,  20559,   3438,  23587,  13320, -13099,  -6021,   -610, -16932,  21521,  23292,  11981, -20187,  17917,  13188,  18663,   5481, -21374,  13988, -10770,  -6795,  18658, -11869,  21890, -19105,  12587,  23058,  20642, -13278,  -6769,  -3903,  13565,  15004, -19134,  10658, -10743, -15315, -19212,  -8177,    208, -17802, -10882,   3566,  -8345,   1045, -20436,   9810, -22262,  14061,   8860,  -4398,   9962,   3533,   3232,  18418, -15254,  11996,  10146, -10937,  21786,  20201,    377,  20582,   7546, -19563,  11866, -21059,   4149, -16506, -17107,  -5091, -15023,  16472,   2431,  16611,  -6689,  23097, -16131,  19954,  21320,    -56,  13592,   4588,  -4552, -15386,    451,   6418,  22909,  17646,  19720,   5451,  13505,   -885,  19954,  -8448, -11913,  12682,  10183, -19958, -15173,   2149,   -361,  -7316,  21536,  -8708, -15720,  20977,  23149,  16740,   5520,  17865,   5682,  20810,   6683,   6095, -21172,  -2856,  -3501,  11097,  -2903,  17872, -13288,  11958,  20675,  -3537, -15548,   2958,   9323,  15715, -11552,  19655,  -2640, -17850,   9768,   3641,   2393,  -6282, -16026,  -8461, -20679,   3285,  -2808,   7359, -18088,  10015,  -8578,   5287,  19994, -18643, -19639,   9887,   5041, -20401,   -761,  -5484, -11684,   -807,  14886,  -5887,   1438,   7210,  -6626,  10943, -11010,   -679,   5021,  18801, -12099,    755,  -9396,    409, -21032,  18315, -10372,  15223,  19616,  -9737,  -9651, -17319,  14866,  22230, -15611,  19705,   6785,   7735, -10599, -21745, -13770,  20832,  12649,   1578,   8966,  -1989,   6974,  11002,   4283,  13479,  22269,  -1758, -13921, -22666, -22832, -13853, -18426,  12446,  -3575,  18654,  -1108,  -6159, -16790,   5326,  18189,  -2922, -20348, -17647,   3400, -13180,  20823,  22084,  14516, -20435,  -5674,  -7221, -11315, -11554, -17938,  18004,  -3727, -11188,  14365,  16701,    572,  13466,  17109,  21763, -12797,  20932, -11996, -16201,   -732, -18348,  14283,  23463, -13953,  18632,  -6828,  18597,  22009, -11899,  15121,  -7232, -15717,  -3756, -14461,   8877,  19140, -17216, -19654,  24437,  -9453, -13171, -10485,  -6574,  12795,  17071,  20179,  19833, -15877,   6142,  15363,  -1419, -18061,   2081,  12640,  -5845,  11859,  15494,   -222, -20854, -21143,   8371,  -2255, -14094, -17986,   7829,   -825, -13420,  13812,  -3823,  20473,  -7442,   9876,   6733,   -382, -17712,   3113, -18238,  -4880,  -7802,   5885, -17814,  12952,  21593,  16454,   2543,  15256, -21047,  -5347, -12277, -20690, -16160,  -6890,   3813, -20117,   2862,  -4966,  -8361,  18890,  21947,  21252, -20413, -19214,   -941,   6689,   3512,  -1924,  -5499,  19598,  19831, -16070,  24119,  12604,  -6328, -10459,  21118,  -6144,   3632,  -8183,   7439,  17192,   1764, -20527,  13261,  15728,  14095,  -3806,  12190,  21659,   1537, -22488,    770,   9910, -12971,  -6594,  11217,  -1949, -20704, -16387,  -6764,  15737,   -188, -17899,   9161,  -2014, -13688, -11301,   3432,    363,  -8828, -14889,  20099,  -7305,   6347, -16831,  19832, -14875, -14651,  19569, -16334,   3621,  22503,   4137, -10876,  18907,   4663,   7359,   9918,  17598,  16476, -15534,  -9021,   3304,  20572, -17617,  11190,  -2334,   1784,  14661, -17249, -16269,  18910,  11484,  22771,  16742,  -3434,  21252,  23495, -16775,  16061,  -7146,  22762,  23064,  17208,   -511,   7334,  12585,   7084,  13347,  -2859,  12160,   7085,  20698,  -9416,  14121,   6364,  15731,  -4443,   4431,   6253,  -6739, -15151,
           855,   3565,   9604,   1691, -13002,   2748, -22714,   3211,  10041,  13178,  -3054,    181,  -3133,   1510, -10042,  21837, -16970, -14336,  10571,  -9796,  19780,  -2388,  16984, -18350,   7770,   1772,  -8156,  10119, -10174,  17245,  16179,  -4580,  -7921,  18151,  -6049, -16647,  -8399,  15003,   9264,   9487,  19029,  21991,  -3550,  18677,  -9357,  -3172,  20980,  19318,   -270, -21620, -21702,   7319,   8788,  -3281,  19383, -19431,  14552, -22897,  16752,  16111,  -8005,  21526,  17601, -14599,   3885, -20282,  11515,  10072, -12232, -22663,  -9456,  21333,   3217, -19817,    591,   6264, -21604, -15907,  13364,  -9850,  -6213,  13502,  20757,  13381,  -4734,  -2766,  -5040, -12368,  -1427,  -6866,   1756,   3728,  21274,  22469, -23245, -12919,   6751,   4688, -13544,  11247,  22210,  17382,   8700,  -7232,   3933,  15014,  18948,    965,   8716,  -7968,   4867, -20888,  17920,  14860,  -8881,   3262, -11420,  -4900,  17765,   5895,  -8448,  -5066,  -4427, -12218, -16489,  18885, -14142,  -7251,  15155,  13839,   6307, -22446,  -1574,   9500,  15975,  -3823,  12397,   6594,   9464,  -2214,  -6462,  16038, -21423,    998,   9304,    267,  18661,   3698,  -3971, -20104, -19534,  18576,   -499,    703,  -3460,   4772,  -9802,  -9689,   7796, -19041,   2870,   4717,   7153,   1670,  17552,   7542,  -5332,  16040,  12570, -20217, -18242,   2612,  -8721, -16256,  -3342, -22447, -12824,   1676, -12869,  -1874,  10810, -22220,   4593,   1171,   9446,  19702,   2410, -21505, -12192,   9099,  10371, -12311,  17445,  17149,  18001,  -2750,  17247,  19061,  12427,  22657,    375,   9626, -14707, -21041,  15198,  20913,    176,   1271, -14854, -22916,  20364,  20010,  -4594,  16673,  -8443, -17132,  -9418,   1741,  10947, -12895,   5187, -15302,   6593, -21772, -21237,  18291,  12288,  15530, -20524,  -1720,  13148,   8397,   4824,  15694,   7104,   2628,  -4701,  10522,  22804,  20717,   1364,  -8821,   8616,  -5513,  -6928,   1768,   7746,  -2792, -22587,  14713,  -4063,  21730,  -3887,   7859, -23050, -22167,  -7765,   5652,  20466,   -494,  -5855, -20319,  22708,   2326,  -7356,  -7504,  14376,  17020, -20865,  -2938, -12023,  22174, -18906,  18871,  13594,   6696,   6185,  13919,  -1493,  -3122,  14514,   2723, -13206,  24460, -11668,   9195,  23335, -10894,   3874,  -9753,  -8912, -17608,  19981,   4422,  -1032, -21883, -18621,   2348,   -738,  20656,  18750,  -6141, -14527,  -9488,  -5826, -19110,    591,    -50,  13628,  10016, -21975,  17216,  12733,   1670, -16589,  16543,   2149,  -1146,   8353,   6419,   8282,     25, -10129, -15186,   6073,  17812, -13991,   -921, -19924,  -4167,  20259, -12142,  -7010,  -7553, -17877,  10112,   4537,  21390, -16728,  -3389, -12939,   7656,   7906,  17273, -17251,   7000,   -510,  -6302,  -3418,   5988,   6283,   4071,  20960,  14000,  -6162,   -289,    670,  19944,  -6614,  -4012,  -6088,  -1771,  20233,  11462,   7906,   7232, -12401,  21603,    236,  -2416,  10594, -11182, -14658,  15939, -13775,   1220,  10877, -20057,  14353,   1806, -10140,  14059, -21529,  11782,   5818,  -3891,   9667,  14152, -20861,  -4159,  -1701,  14805,  20447, -19742,   1608, -15996,  -4406,  17226, -17997, -20770,  10131,  18963,  -3708,  24124,  20132, -16888, -13954,   -442, -14095, -18122,   9028,   6645,  16425,    212,  13469,  -2628,  18115,  18478, -17055,   9606,  -9447,  18038,   2566, -13795, -19546, -15218,  -5617, -14963, -13958,   6980,  -6282, -16205,  22617, -10256, -10484,  10122,   4792,  20366,  14257,  10350, -17860,   9659, -17793, -18142,  15498,  -9580,   8868,  -7926, -19704,   6899,  19782,  11471,  23604,  13817, -20430,  20244,  16920, -15673,   5433,   8211,  19301, -20457,   4152,  -6102,  -8182, -13233, -20435,  16811,  15417, -22813,   7557,     71,  -4577,  -5022,   9154, -20713,  -3668, -19266,   5089,  18223,   5922,   8226, -21618,   4594,  13272,  15762,  -8878,   2568,  19473,   6238, -11749,   5230, -17248,  11490, -21189,  -8650,   8691,  11458,   7394,   6698, -21670,   1221,   2592,  15749, -17162,  -3005,  22883,  -5004,  17364,  -4190, -22354,   5205,
          6377, -19867,  22257,  -1009, -22529,  11359,   4447,  -6170,   1096,  21975,   4269,  16137,  14946,  11561,  11523, -15518,   9227,    651,   5891, -20609,  17932, -22463, -10876,   2570,  20801,  18224, -21885,   3956, -18560,  17062,  19846,  -1597,  -8182, -18636, -12579,   -949,  14669, -16194,  -5620,  19479,  12772,   4747,  -6310, -16414, -12098, -16977,  -9002, -17814,  15141, -16818,  10796,   -529, -19884,   3834, -16357,  -9917,  14768, -23079,  -7644, -13666,  -4728,  -1351,  -4186, -10775,  13333,   8617, -11393,  10482,  -7743,   5060, -15025, -17904,    718,  -3089,  15486, -11037, -21179, -22457,  17877,  -4653,  11583, -10007,  14652,  -9816, -15484,  -1134,   -184,  19324,  10920,  21648,  -5346,  -3282, -13740,  -3136,  -5053,   2693,  -3615,   7924, -12064,    109,  -7901,  15455,  13789,  18271,  11711, -14056,  15822,   3395,  13177,  -4866,  -8713,  19127,   8741,  11897,  21136,  22121, -18800, -20816,  21453,  19612, -10956, -19788,  21976, -11355,  -5179,   7279,  10153,    222,   4808,  -5031, -12134,    290,  20553,  20868,  21821,  -4598, -22207,   1096, -18657,   8376,  23282,   8654,  14994, -16549, -15247, -22230,  15401,  16942, -12909,  -3140, -10541, -13582,  16423, -10556,  10426, -16659, -18043,   2522,  17930,  -8625,   8617,  -6226,  -8551,  11919,  13092,   -733,  15781,  16171, -11377,   3046, -11869, -12934, -15680,  11517,  12004,  14275,  -6566,  18144,  15604,  12694,   8918,  -4387,   -335, -20771,  21687,  -3229,  20367,  16873,  20374,  -6364, -15252,  -5544, -13951,  16731,  22122,  14891,   -654,   7606,  -2037, -21352,  -3151, -17826, -18076,  16169,  17652,   2360,  15770, -11345,   7565,   5020, -21825,  22874,  11498,  11417,   8443,  -7371,  -9036,   6537,   2263, -15723,   3912,  -9612, -20785,  15530,  19700,  10107, -22342,  -7042,  17139,   4576,  19396, -17831, -22406, -12464,   -902,   4771,  11310,  20769,  15180, -20216, -20514,  22991,  22769,  12329,  11803, -18544, -16245, -11702, -21812,  16094,   1567, -17592,   6119,   9112,  -8475,  13157, -10109,  -6114,  -7717,   6219, -16063,   3371,   1678,  -7843,  -7277,  -7474,  -1059,  14875, -12243,  -9698,   1029,  -8080,  -4603, -19858,  22879,  13375,  -7292, -17033,    599,   7183, -20372,  11350,  -4736,  16749,   6332, -16926,   9306,  10151,  19127,  18777,  -1791,  17386, -14519,   2301,  21512, -11279,  -4820,  12839,  18560,  21602,  18915,   3417,   3408, -14821, -14793, -10590,   6350,    131,  15979,  20996, -16251,  22260,  15635,  -3898, -18694,  -6809,  24210,  16240,  -8046,  11282,  10601,  18775,  -7920, -17436,  16513, -19219, -13343,  18387,  -1053,  -4194, -10588,  17619,  -1375,  12885, -20716,  -7455,  16241, -21943, -21223, -17586,  11877,   6829, -20182,  11339, -11274,  10536,  -4242,  -8392,  22642,   2932,   5765, -10608,  17290,  -9579,   3079,  21668, -14421, -15708,  21247,  -9136,  23171,   3085, -18012,  16745,  22215, -11436,   8817, -12196, -17435, -19689,  -1933, -21854,  10792,  -4845, -14462, -16930,  20748,  12104, -13616,  14188,  18435, -13275, -10136,  16271, -14587, -20481,  -2392,  -8509, -21809, -12383, -19356,  11414,  11040,    904, -20909,  -9734,  12664,   -988, -22250,  20420,   4991,  21081, -22532, -10747,  11263,  -5111,  20861, -17155,  -4111,  18011,  11707,  14597,  -7951,  21122, -20923,   4834, -21608,  23252, -16377,  -9512,  -8917, -21263, -19064,  20760,   3558, -22513, -12326,  19120,   9824, -17241,  20268,  15565, -17210,  11459,  18899,   7402,   3936, -12570,   4738, -12683,  21772,   6416, -13941,  -1346,  -2963,   2926,  -5839,   9914,   1732,  -5421,    607,   4786, -11774, -20990,  -4389,   9025,   5189,  -7100,  -8843,  20441, -20854,  14668,  -3314,  -6456, -15119, -12280,  22415,  17766,  13249,  12993, -14135,  -9975,  21393,  -4606,  10377,  -1087,  -9527,  11739,   3196,  -8594,  -2057, -14325, -22740, -22272, -17009,  22587,  -1840, -20622, -15906, -12056,   6849,  11036,  22379, -20007,   9566,  -6841, -13585,   5447,  11806,  -9457,   9470,  -3142,    566, -12033,  -3596,  -9025,  -6661,  17746,   4808, -12443, -11663,  14656,
         14571,   2681,  -3936,  -7202,  -2583,  23984,   2673, -21053,   1889,  -7416, -23645,    234, -12575,  19421, -17820, -15644,  -5899, -11959,  -9439, -11825,  15975,  12431,  -1245,  -2057,  13052, -17516, -16712,   -186,  23097,  20285, -15152, -15293, -10428,  16798, -20701,  18698,  -2391,   1645,  -5317,  18330,  18344, -20098,  19818, -14711,   3916, -10208, -15550,  10248,  -3093, -13207,  10562,  -5962,  19067,  15994, -20027, -20517, -13591,  19843,  19237,  14614,   4272,   2202,  14176,  21994,  -4421, -21736,   2137,  16095,  -8541,  -6553,    642,   3712,  -3594, -11271,  -1071,  -2213,  15669,  -2892,  12821,  12152,  -5885,  20323,   -190,  23423,  -9933,  -2922, -17757,   3576,  -1251,  11915,  17734, -18932,    790, -14654, -14367,  21368,  -7657,  11141,   7764,  -8208,  -2597,  -2574,  11730,   3357,  -2483,  22755,  19622, -11702, -10954, -22416,   6460,  10994, -11609,      1,   9362,  -6784,   7578,  12954,  -8014,  16236,  -5624,   9204,  18475,  15926,   -883, -19602,  -6507,  12235, -13656,   -803, -22491,  11281, -10395,   7531,  20944, -16650,  19150, -13715,   4360,  23634, -21443,  -4163,   2887,   4044,  14478, -10208,  23163,   3002,  23212,  15713, -10747,  23175, -12371,  15802,  10319,  -9333,  22624,  13666, -13854,  11504, -16860,  13590,  22113,     90,  -8635, -17847,   1754,  10393,  15112,   4076,  15465,  20907,   7588,  12337,  20481,   8955,  22146,   5350,  12557,  18285,   9630,  -9975, -17994,  -5559,  -3601,  10935, -12210,  11758,  -6992, -18385,   4308,   7278, -19125,   6430,   2499, -21125, -15399,  12412,  20848,  16787, -19367,   2168,   2592,  -6026,   6692, -21442, -22128, -14595,  13940,  23431,  13051,  -5717,  20741,  15118,  -2163,  14038, -16628,  18714,  21432,  -4506,    858,  -5892,  -7982, -14727, -15765,   6125, -18653,  20274,   3506,  13786,   1580,   -701,  17740,  15080,   3337,  -1446,  22453,  14578,  10088,   9518, -12354,  -1957,  18503, -18186, -16455, -20170,  -5375,  -7882, -11865, -12560,  22738,  16712,   4573, -11949,  -1123, -21978,  15552,   9637, -21559,  22990,   2035, -14645,  -9739,   7015, -16581, -21332,   1747,  23854,  20959,  -4522,   1797,  11052,  21192, -10446, -13908, -17835,  14589,   8033,   4849,  18667, -16078, -22021,  13680,  -7810,  10510, -22794,  10455,  18947, -19398,   3811,  -3773,  13718,  23118,  12062,  17353,   4665,  -8104,   8456,   -554,  -4238,  14103,  15876,  10326,  14412,  19084, -21857, -17905,  21132, -13814,  -1155, -13737,  -1279, -12884,  22342, -15709,  10689, -11192,   7243,  -4728,  19659,   2748,  19757, -12560,  18944,  18718,  16057,  -6185,  18819,   7111, -20448, -19359,  23240, -15744,  -7644, -14479,   6175,    244,  16466,  -8023, -13457,  -8040,  16493, -16445, -19211,   9794, -17248,  -6167, -16291,   3150,   2321,   9085,   9989,  10101,  21928, -22712,   5911,   3489,   8385, -22622, -10447,   3832, -12179,  -8045,  -9504, -18870,    548,  -4321, -11122,   5969,  11581, -12817, -19642,  -2174,  22655,   6574, -21233,  -8398, -18874, -19535,   6628,   9299,  17482,   6457,   4853,   6124,  18296, -13891,   6295,  -9666,   6270,  -8230,  20465, -10679, -17463, -16270,  14800,  -4061, -16589,   9555, -12512,   -644, -22743, -22744,  20139,  15501,   7197,   1284, -16757,  20203,   1266, -20215,    132,   4689,  -2032,  -4969,   9280,  17893,  10277, -10319, -16330,  11209,  16553,  20093,   7001,   -995,  15527,  14029,   2200,  18883,  17820, -20993,  10399,  -7093,  18872, -10723, -13653, -19221,  18792,  -1188,  15077,   9434,  -7654, -19061,  -9403, -15112,  -6534, -12278,  -3955,   3378,  20552,  22323,  -2778, -21903,   3228, -16268, -20694, -15341,  19473,  -4772,   1013,  13859, -19707, -16753, -15943,   -707,  18564,   -778,  10125,  -4450, -17938,  17654,  -8291,  15008,  16625, -14239,    306, -19690,   5415,  18442, -10320,  17318,  14707, -18767,  21720, -14108, -10526, -10916,  -3159,  16079,  16342,   1850,  14561, -12412,  19596,  21262, -21334,  -9575,   -913,  13689, -18481, -21099,  -5232,   4112,  -8179,  15726,   4666,  22352,  -1945,  -4427, -14548,  15830, -14151,
         -2613,  -9611,   8063,  -7440, -18519, -17014,  18286,  15143,  15258, -10587,  -3204,   9573,  22150,  10451,  -4806,   8332,  -1312,   5562, -22576, -11452, -15121,  -8027,   3492,   -660,   6058, -12870, -10152,  -7152, -17300,  10491,  21437,  22699,  -5448,  20789,  20584,  -8521, -11206,  14854,  -1460,   4547,  -9417, -19572,  13732,   2718,  17875,  10534,  13564, -10169,  -9348,   3204, -19573,  -7242,  -7856,  -3215,  -7496,  -8251,  -6049,   9784,  19899,     67, -17981, -21961,   6896,  -1648,   8198,   4188, -13068,   2070,  20798, -20890,   7036,  -6519,  14343,  -5454, -16697, -11174,  10465, -19854,  11620,   1873, -11126,  22556,  -8527, -14305,   8304,  -3951,  -4157,  11517,   -700,  -7344, -19009,  -7783,  -7938, -19098, -12095,  -2412,   8416, -15205, -12828,   8914,   6403, -19981, -20433,   6295,  10147,  -5209, -15337,  18992,   2781, -22446,  19502,  19604, -13786, -18963,  20204,   8844,  -4148,  10350,   4087,   3145, -21330,    873,  16119, -15863, -11712,  11865,  22904,   4078,  10463,  22509,  22461,   8337,  15659,   -479, -21631,   1855,  19812,  18904,  -4939, -10425,  16737,   3732, -19189,  12099,  -8505,   4476,  -6728,  20388,  21339,  20182,  -5575,    290,   5714,   4949,  -4711,    184,  13940,  -7216,  12187,  11268,  -2995, -11153,   9788,  -3374, -18066,  22674, -18877,  -6012,  -8350,    -88,  -3282, -10825,  -9918,    909,   7874,   5826, -19982,  -3841,  21594, -11300,  15436, -13689, -21609,    -15,  -1359,  23528,  -3635,  -8958, -10592,  14701,  -5569, -15726,  -1778, -18667,  10621,   2078,  22956,   -232,  19676, -16503, -22785,   -992,  19957,  12861,  13433, -14198,  -2831,    995, -22814,    193,  17272, -16355,    966,  -5474,  -4591,  17504, -17266,  18372,  -8080,  13431,   2535,   4181,  14491,  -3771,  -5303,  -3800,  15839,  22732, -21948, -12248,   8907,  -9866,  14034,  13841,  -6982, -13479,  15065, -18161,  -5062,  13264,   7518,  18225,  -8265,  16826,  10161, -11880, -12327,   3994, -22400, -10507, -12415, -20668,    409,  16704, -13651,   1165,  10619, -18351,   -181,   1752,     97,  -1949,   8767, -10179, -14139, -13500, -15315, -15354,  11612,   8166, -18764, -16478,   8048,  18399,  10448,  12566, -16909, -21016,  -9200,  -2895,  11930,   -811,   2020, -17641,  -6841,   1149,  14403,   6438, -18942, -11562, -20786,  23998, -21060,  22753,   7169,  -8338,  12905,  -2193, -15689,  15539,   7665,  20319,   6904,  20982,  11911, -15984, -21615, -16427,  -2007, -17986,  17159, -17887, -15650,  -6385,  -7920,  16177, -19859,   3657,    459, -11455,   4518,  21581,   2620,  19201,   4588,  -3078, -17036,  13008,   5497, -14383,   8047,   6587,   6455,  -6664,  -5525,  14405,  12888,   4737,   7438,  23580,  22911, -12688,   8479,   9595,  11020,  15892,  17193,   9413,  -5948,   8028,   9626,   9542,  10526, -11820, -11532,   9021,  -2874,  -1636,   5962,  11215,  -8120,  12810,   6235,    351,  23102,   -252, -21212,   7225,  16059,   4575, -19327,   6715, -14373,  20258,  23380,   2291,  -7639,  17866,  23155,   5539,  -5842,  -4179,  -4699,  -7368,  -6909,  22247,  12604, -17073,   -747, -10368, -15031,  19405, -13989, -13823,  12405, -16666,  -5801,  -9117,   1154, -19912,   9675,  18653,  14333, -16216, -14484,   6570, -16279,  -9250,  -2073,   1247,   1065,   2142,   -128,   3027,   -276,   -592, -15486,  -4790,  -5556,  -1387,  16258,  22266,   2562,  13935, -17369,   7721, -10721,  22450,  17503,   7954,  21186,  13075,   7802, -20430,  11292,  -6036,   7769,   2833, -16778, -19382,  -5884,  -9917,  -9174, -20071,   5179, -19433,  17227,   6767,    459,  19520,  -1137, -20225,   6734,  -1699,   7333,  -4608,  20686,  13746, -19206,  21106,   4274,   6532,  10235,  21555,  14174, -19792,  12099,   6395,  11325,  21562,  -3470,   9728, -12685,  12710,   9518, -15727, -10815,   7048, -21487,  21503,  -9602,   2146, -10213,  -6535,  14613,  14787,   4724, -13684,  20798,  -6928, -22700,  20185,   7791,   8440, -16196,  -8606,    746,  11621,  -2469,  16938, -12488,  -5694,    418,  -8047, -21203, -10043, -13794,  -5960,  21210, -12865,   8664,   2925,
          6224, -16787,   1716,   3761, -20482,   2048,  -8391, -20231,  15744, -16104,   -996,   2024,  -3725,  19638, -21679,   6616,  -9055,   9981,  15894,   7187,  -6488,   -811,  17255,  21029,  -8319,  20408,  23296,   5058,   7327,  17013, -21808,   9374, -13556, -21909,  10850,  13646, -10339,  -4132, -21882,  -6841, -19291,  -2569, -14468,  11677,   9299,  -1498,  -5909,  -8519,   -799,   1382,  16746, -19374,   9825,  20260,  21571,   2406,  -1886, -17885,  -7055,  16816,  16139,   2648, -22306, -12235,  -7914,  -2235,  19813,  12712,   2181,  -6299,   7307,  22483,  21155,   7570,  22706, -11895,  22719,  12013,   2899,  14484, -21404,   1067,  11493,  14935,  -3170, -12208,  18702, -18733, -15869, -11303,  22217,     -3,   2318, -14322,    570,  12907, -10814,  -4927,  14830,  16039,   3492,  17889,  22048,  19791,   5221,  17781,   5112,  -3384,  -4773, -20123,  19871,   7975, -22625,  -2554,  15516,  -5468,   1860,  10398, -20696,  -1143,  -3116, -12936, -20477,  13195, -15119, -19279,   9264,  -4995,  16116,  18819,  20635, -15976,   5500, -22171,  -8803,  10672,  -1884,   -131, -18480, -16204,   9642,  20043,   9207,  19109,  -2847,  19793,   7637,  -5743,  16984,  16607,  -8988,  11455,  22905,  17759, -14285,   4669, -14232,    898,  -2452,  -6514,  21448,  -4152,   4342,  21460,  14109,    830,  19039, -19330,    147,   4857,  -8338,  -7757, -10728,  -4702,  -3690,   1649,   2637, -15070,   7050, -13665, -10246, -10631, -17112,  16429,  13048,   1883, -17557,  18850,  -3745,  -8408,   1689,    532,  12536,  -2655,  12003, -12201, -13725,  14965,   -473, -15778,  15668, -15167, -12887,  -1583,   6552,  -1657,  21494,  14314,  17192,  15092, -23103,  12141, -20671, -13391, -17234, -19794,   2040, -23133,  -9209, -17711,  11383,   7743, -21774,   9872,  -6927,  10617,  16503, -11431,   6710,  13701,  19661,   9610,   9581,   8122,  -6170,  17887,  16037,   -404,   9630,  -2460,   5675, -15872,  17135,  -5347,  19927,  22623,  11708,   2432, -11479,  16470, -21487,    439,   7985, -14700,  -5786,   4032,   4670,  20715,   6346,  -8665, -12102,   6301, -20196, -20843,  23869,  19729, -14338,    811, -13658,  20961,  -7730,   3852,  -9551,  12112,  -2005,   9113,  23518,  10326, -21840,  16913, -12687,    437,  -6168,  -3494, -13632, -10809, -11027, -19809,  13961,    -90,  -7077,   9635,  -8982,   4539,   8600, -12226,   2914,   -961, -17749,  22491,   -710, -21093,  13494,   7301,  17977,  16724,  -4072,   2215,  -8553,  11027, -12198,   4186, -17718,  16500,  16504,  -2866,  18453,  -2394, -16843, -13849,  11381,  21497,  23189,  -8371,  -9528,  -7852,   7299,  19281, -19231,   6189,   5093,   4711,  12291, -14340,   3766, -22853,  -8695, -18637,  18202, -19386,   8826,  23593,  21082, -15876,  20531,  22626, -11433, -12652,   7508,   9375,  -7732,  13140,  13163,  11343, -22330,  15480,  21902, -20728,  -6084,  22347, -12413,   8915, -18088,    228,   7169,   3792,  -1270,   8598,  -6925,  12992,  19523, -19156,   7578,  -3342,   7983,   4693,  -7577,   8554, -22214,   8893, -17205, -14121, -13748,  13709, -18737,   9297,  16775,  13676,   5813,   5589,   3618, -20627,   2148, -13322, -19791,  -2315,  23198,   1609, -14411, -16465,  18670,  13289,   1758,  16498,    667,  19316,  -4888, -17397, -14856,  11323, -17992,  19052,  16440, -21219,  -8461, -19254,  -1056,  -9239,  -4341,   9789,  18298,  22731,  -7698,  17583,  11505,   5273, -23394,  11581, -21078,  15911,  21987,  21389, -21429,    578,   -798,  13136, -10431,  -1942,  11006,  14897,  16805, -12026,  19884,   9249,  15350,  -6823, -19101,  19444,  21744, -17475,   4796, -14408,  17397,  15537, -17938, -13035,  17519, -22229, -16374,  -2247,  16976, -14635,  -2096, -18238,   9189,  -9791,   5229,   3852,  11347,  18132,   7878, -21494, -13091,  -9514, -22021,   2605,  -8755,  15781,  -8161,   1240, -16924, -18366,  10805, -20823, -15891, -22237,  14659,  -7387, -18191,  14926,   2963,  -7755,   2472, -14418, -19652,  -4218,   3353,   8361,  19611,  18840,   9129,   1547,  12325,  23285,  12840, -14424, -17884,  11305, -20575,  10019,  -1974, -11721,
        -19746,  -6401,   1662,  16770,   1578,  14047,  22304,   9423,  18096,  22090, -19149,   7904,  -7338,  -7105, -11483, -14620,   2571,  -2849,  -3591,  15968,  20756,  13789,   8413,   2497,   5463, -13812,  16162, -19794,  14491,   -340, -16177, -11552,   9422,  -2732,  11204,   2935, -14151,   -743, -18111,   9246,  20555,  -6019,  13991,  20327,  19089, -20138,   3902, -20055,   1913,  15243,   2061,   9280, -21809,  10867,   -684, -10446,  -1104,  10452, -13129,  12620,  18621,   3263,  20874,  -9730,   -512, -14214,   3112,   4750,   1194,   3030, -16342,   2295,   8768, -17380,  14928,  -2597,   8821,    718,  20122,  17046, -16866,   7660,   1585,   3496,  12216, -10361,  -7060,    832,  15462,   3233,  -6089,    430,   7508,    171,   3581,  -5484,  16064,   2784,  -2991,   2920,   5447,   9546, -22982, -10032, -14736,  -2141, -22138,   7731,  13890,   9718, -15054, -11503,  10328,  -3335,   1641, -13939,  -1672,  -3097,    244, -19092,  16209, -10059,  -2499,  -7323,  -1166,  16646,  15490,  22228,  20196,  -9043,   5508,  -5301,  -6920, -14863,   4284,   8197,   3334,  20518,  14840,  -6010,  21957, -19216,  14696,   4313, -19647, -17391,  21197, -23252,   4058,  17699, -14085,  -4176,  21473, -18577,  17157, -14172,  11419, -15634,  -3844,  16317,  19082,  -6967,   1630, -21714,   2519, -16210, -14416, -14213,  16825,  19865,  12178, -15810,  -8643, -14878, -22228,  13636,  -6826, -20579, -20529,   7175,   1253,   7424, -19728,  -7515,     30, -12549,   5100,   8841,  16041,  -1200,  -1444, -11227, -12158,   1670,   2489,  -7608,  -4189,  18739,  -4355,   -601,  -1782, -21916, -16995, -22577,  -4951,  15701,  -7281, -15099,  -3289, -17003, -20992,   6724, -16882,   7618,  -6168, -13205,   9971, -13896, -19546, -21377,  -6667,  23017, -22472, -18978,   3038,  19011,  -7723,  -8034,  11452,  -7388,   -829,   4099,  -7141, -14985,   2565,  -6296, -18371,  21251,  -8460,  19352,  10122,  11178, -21226,   2770,  14385,   6911,  -1707, -20026,   8243, -16707, -18961,  20455,  -7014, -12521, -10207,   1721,  -5563,  22351, -12338,    735,  -8491,   2507,  19573, -17444,  22018,   4272, -19613,   5671, -19909,   9219,  -1801,  18857, -14319, -14698, -15606,  -8932,  -9380,  13775,  -9750,  11676,  20528,   8470,  12925, -14122,   -756, -14423, -18400,  -3286,  20012,   3858,  -6041,  18272,  -8643,   8850,  -6887, -15391,   7150, -15713,  19568,  -1756,  -8895, -17692, -19462, -11391,  20542,   1701,   2315,   1588,   6505, -14622,   3537, -12944, -21561,  -4969, -20094,  12805,  13362,   2171, -14260,   5455, -16266, -20778,  14350,   8067,  20793,   -839,  13782,  21177,  22739, -20518, -18616,  13136,   4416, -11300, -18961,  10313,  -1440, -12163,  18847,  14976,  -4080,  -8863, -13578,  -2576, -11810,  -9413, -18901,  19098, -10509,   6859,  13201,  -3988,  -5736,  11861,  22395,    357,  11507,    330,   2786,  -3967,    820, -20803,  -8747, -21577,  -7151, -20946,  -3787,   8414, -18652, -11923, -10343,  16790,   2421,   5119,  -5813,   1805,  10889, -19116,  17622,  21940, -20148,   7613, -14246,  15700,  14911,   -166,  -1258,  -1558,   6465,  -9515,  -8781,  21476,  18263, -10746,  20820,   7142,   1467,   -294,  -2849,   4311, -12588,  -9043,  13633, -12123,   4887, -10913,  -4217, -10148,   4400, -18195,  13252,  17139,   5317,   1796,  10243,   4642,   8743, -10577,  10705,  -5821,  -6198,    708,  -6552,  -1577,  19604, -10131,   6224,  22993,  23401,  19084, -10606,   5240,  -8796, -18902,  16006,   2998,   8088,   2160,   2023, -22466,  14714,   9602,  -6861, -16812,  15050,   8366,  13015,  22969,  -8641,  -2709, -14084,   4168, -19110, -18797,   6108, -20467, -21470,   5031,  -5793,  14676, -14108,   3298,   8211,  12837,   5879,  17923, -15703, -20926,  -2059,  -8028, -18536, -16361, -15256,  18817,  -6538,  -6517,  16055,  11032, -20877,   5519,  -3640,  -9590,    730,  -7287,  20278,  20687,  10657,   9107,   8800, -13443,  19829,   7606,  22615, -13510,   -539,   7083,  14343,  -9094,  11254, -11660,   3333,  10879, -18757,  22652,  13262,  -9987,  -9301,   6791,  17801,   -307,  12725,   1228};

    const static Filter<int16_t> sequential_1_conv2d_1_biasadd_filter(sequential_1_conv2d_1_biasadd_filter_element, -18, {4, 4, 16, 32}, {1, 1});
    const Filter<int16_t> *get_sequential_1_conv2d_1_biasadd_filter()
    {
    	return &sequential_1_conv2d_1_biasadd_filter;
    }

    const static __attribute__((aligned(16))) int16_t sequential_1_conv2d_1_biasadd_bias_element[] = {
             0,      0,      1,      0,      0,      0,      0,      0,      0,      0,      1,     -1,     -1,      1,      1,      0,      1,     -1,     -1,      0,      0,      1,      0,      0,      0,     -1,      0,      0,      0,      0,      0,     -1};

    const static Bias<int16_t> sequential_1_conv2d_1_biasadd_bias(sequential_1_conv2d_1_biasadd_bias_element, -7, {32,});
    const Bias<int16_t> *get_sequential_1_conv2d_1_biasadd_bias()
    {
    	return &sequential_1_conv2d_1_biasadd_bias;
    }

    const static Activation<int16_t> sequential_1_conv2d_1_biasadd_activation(ReLU);
    const Activation<int16_t> *get_sequential_1_conv2d_1_biasadd_activation()
    {
    	return &sequential_1_conv2d_1_biasadd_activation;
    }

    const static __attribute__((aligned(16))) int16_t sequential_1_conv2d_2_biasadd_filter_element[] = {
          6207,   -101, -20875, -11813,    455,  14219,  17261,  10436,  -8075,   8276, -15219,  15601, -11982,  -2733,   8928,  -2506, -10288,  -8912,  -9077, -14507,  -9652,  -8798,  17661, -16946,    -13, -19701,  -9814, -10224,   1174,  13814,  10058,  -4076, -10983,   8165,   9061, -21688, -10306,  12065, -15272,  12174,  -3761,    -52,  -5387, -19208,  15119,  -8444,  10225,   6175,   6120,  18734,   6740,  20454, -17059,   8549,  16061,   5249, -20262,  12980,  10678,   5095,   1918,  17201,    273,  -4311, -13411, -11792,  10964,  10724,   2466,  -8123,   -730, -19351,   9064,  18135,  14998,   4926, -18588, -17244, -18468, -17658,  15270,  -2083,  12904,  14499, -14310,  11031,  -8252,  16551,  13468,   7662,  -8108,  -1591,  11498,  14242,   2230,   -704,  16022,  -4799,   6600, -16896,  16490,  16053, -14301, -12951, -12366,  15915,  10848,  -7742,  10627,   1447, -10217,  17283,  -1696, -12900,  15358,  22118,  15914,  22147,  14531,   5298, -16532,  15252,   7471,  -2376, -18325,  11073,  -4567,  -5666,  -3769,  17158,   2059,  19976, -12916,  22249,  18453,   3065,  -2480,   6707,  10821, -17342,  10404,  22199,  -6069,   9110,  -7458,  19051,   8551,   -449,   9248, -18571,  -5125,   3703,  10092,  11354,  -2409,   8873,    408,  20954,   2561, -15903,  -5737,  -6863,  -2859,  20698,  20307, -21422,  11542,  11752, -18093, -12467,    736,  18281,  16893,  17474,  -3311,  -8372,   -502,    358, -18156,   2575, -18487,  16428,   7107, -14863,   8054,   6056,  -6915,   4274,  17635,   4953,   7787, -16381,  13709,   -115, -21266,  19728,  15280, -10793, -16924,  -2639,  13390,   3790,  11834,  16901,  10838, -10770, -13003, -17090,   6542,   2843,  17985, -20051,    151, -20521,   2528, -16858,  21911,  -8549,   7530,  -9564,   7423,  20087,  15309,  15781,  19002, -17298, -12981,   -998,  11128,  14072,  18913,   9386, -20052,  21545,   4192, -15540,  -2237, -13197, -15541,   9327,   7388,  16913,  19423,  14952, -12223,  -2976,   1886,    469,  -6777,  -1483, -11816, -16583,  12141,   2322,   -368,  11364, -15506, -20818, -17898,  19565, -18957,  20953,  19070,  14550, -11153,  16767, -12567,  -3888,  -3600,  -6050, -10858,  -1866,  -9559,   9510,  16211,  -6423,  -2199, -17415, -19833,  11537, -16212, -16691,   4550,   4319,   7253,   3725,  19730,   5101, -17159,  13356,  11325,  -2598,  -7911,  17927,  -4218,  -3822,   8808,  19035,  14385,   5640, -10826,  17584,   3946,  16451,  -7075,   8943,   2704,  -6155,  15405,  10703, -18795, -14179,  18168, -18424,  13498,   4855,  13504,  16446,  15704,    119,  -9369, -17834,  -1679, -20657,  15750,  14332,   9152, -11730,  -9101,  21709,  -8800,  -9782,   8403,   1285,   7242,  -4876, -13531,   2947,  -7395,  17959,  -1737,  12004,  19497,  -3183,   6099,  -6471,  -7053,  -2984,  -6186,  11486,  -4037,  15214, -10435,   5997,   2879,  -4899, -10211,   5360,   9294,  17106, -10175,  -6821,  21052,   -390,   7609,    755,  15438,   6923, -18584,  17123, -14519,  21044,  -5121,  10026, -19741,  19804, -17004,  19995,  -1773,  12548,   8793,   -763,  11154,   7632, -13077,  16003, -15794,   6769,   2919,  16847, -15728,  15154,  19266, -18460,  -7906,   5879,   6386,  10310,  20157,  -8832,   6516,   7081, -12734, -14083,   6752,  21774, -15673,  10625, -14193,  -7652,   3539,  -9846,  -6403,  22124,   4586,  10770,   7668,   9242,  -7745, -18042,  -3494,  20932, -20006, -15533,  -2375,   -818,   4791,  21879, -18603,  -2975, -14128,  -9161,  -7916,   8674,  13301,  20409,  -2123,  -8887,  -7303,  19773,  21534,   8572, -15540,    801,   6542, -16158,   3988,  -4014, -13103, -17096,  14061,  20217, -20961,  10375,  -8996, -10109, -16780, -11223, -20419,   -517, -12187, -18938,  -3971,  12873,  16351,   6322,   7306,  14999, -11943,  21522, -10091,  17546,   4695,  -9482,  20901,  10118,   9072, -18482,  11452, -10472,  20984,  -1435, -11284,   2459,   4975,  11608, -16525,  -4370,  -2841,   8077,  -9280, -12357,  19751, -15651,  13269,   8709,   4195, -20674,  -2186,  21362,   6056,  -5113,  -6270,  -8885,   7405, -20362,  22308,   8360,  20544,  14942,  -5118,  16220,
         16127, -12700,  20528, -14604,  -9184,  19996,  15857,  10881,  -1397, -10102, -18246, -13440,  11665, -17555, -10156,  18206, -15051,  11975,  20647,  -5860,  21976,  -7981,  -3209, -17437,   8096,  20091,  -7528,  21151, -17714,  10617,  12302, -19971,  15483, -14620,  -6645,  19255,  -1756,  -4137,  21620,   1024,   4406,  15975, -14983,  -7197,   -898,    -27, -14156, -14315,   7518,  12111,  -8800, -12022,  16384,   3945, -12775,   8438,  -4498,  -1508, -13063,  -8950,   6427, -14532, -15057,  -1122,  13575,  -9388,  10739,  11817,  -8289,   7799,  11195,  21147,   4595, -10443,  -1196,  18991, -19859,  18028,  -9373,   9117,  21291,  -1092,  18359,  -3193,  -1225, -18900,   7472,  15963, -20089,   6765, -11489,  -3803,   1380, -15450,   2622,   7846,  21182, -20745, -14366,  12365, -15846, -11243,  -6731,    281, -13307,   4372,   1783,   6951,  -9414,   1641,   7569, -10420,  -8368,  18942, -16729,  13330,  -3064,  -3022,   1334,  -5076,  19914, -12455,  -5965,   1275,  15485,  -6873,  10000,   7058, -12048,  -1914, -20421,   7804,   6288,  16600,  11424,  -7244,  11708, -11720, -15931,   2636,  -3562, -14771,  18064,  12462,   6640,  21576,   8197,  13489,  -7791, -14159,  19021,  18837, -18064, -20109, -14433, -19827,  21013,   1707,   6658,  20749,  11563,  16801, -21238, -14613,   3507,  14111, -10787, -21838,  -7415,  10871,  15511,  -9930,   3492,  -8798, -13403, -12487,  17783,  -9050,   -628, -14317,  10931, -10369,  10127, -16802,  -5861,   8552,   1604, -19940, -15720,  -8744,   3094, -13123,    134, -20696, -16119,   -651,   5023, -16639,   9594, -15747,  20967, -10320,  -3325,   1310, -14384,   5624, -15547,   -640, -20699,  -6442,  13120, -12039, -13654,  18351,  14983,  19566,  16201,   8388,  -5786, -12852,   4391, -20563,   2743,   2528,  -7584, -13199,  -2401,  -1407, -20524,  -5635, -19164,  19133,   9802,   3850,  12250, -18159,   -214, -10147,  11453,   8034,   -863,  18146,  -6483,  14193, -13577,  16012,   5058,  21225,   6076,   1638,   7662, -13562,  -9554, -10283,  -6859, -21883,   5227,   9817,  -1315, -16923, -16706,  -4182,   5284,  20394,  -5382,  -6196, -10522,   1283, -20904, -13642,   4056,  -9832,   2531, -19564,   5803,  12046,  14699, -11731,  -3322, -16469,  -1929,  19352,  12104,  -5941,  18058,   1085, -20644,   2949,  -9833,     29,   9585,  -1278,  -3253,  13169, -15164,  -6504,  21261,  11133,   5185,   2668,  17231,  18896,  19553,  11802,   8431,    256,  16689, -20311, -16915,  12984, -11098,  -8646, -17148,   -225, -19896,  -6543,  12292,   7832, -17762,  -1084, -14147,  -5972, -15655,  -4460, -18019, -11343,  -7424,  14334,  13335,  15018,    967, -11217,  -5827,   7123, -14012,  16579,   3091, -20793,  11669,  12958,   3785,  -9545, -21552, -18391,  17657,   4380,   2784,  14957,  21198,  17017,  -6409, -18467, -20993,  -6075,    875,  -1988,  19782,  -8272,   2181,  16665,   8373, -12369,  19492,  -6622,  16086, -12541,  -8510,   4786, -17550,  18163, -21351, -13841,  -5768,  -3756, -15361,  10496,  15138,  12531,  18530,  16496,  21043,   2698,  -1904, -10607,  17294,  -9770, -18353, -10467,   6295, -18147,  -7533,  -4645,   1261,   -118,   8509, -12808, -21323,   9226,   4869, -19012,  -4555,  20595, -19551, -11647,  -8249,   7228,  16937,    641,  18056,  11531, -10814,   4616,   -495,  15769,  -6001, -11929, -12188, -12094,   7593, -19984,   5942,  10731,   7546,  16450,  11800,   7954, -15239,  -6558, -15943,  -2777,  -8392, -12425,    921,  18015, -14333, -19932,  -8343,   6940, -19761,   1337,   3862,  19757, -14664,  16032, -18205, -11350,  19896,   7213,   8086,   9790, -12738,   7131,   4738,  15079,   8700, -18757,  -1008, -11943,  12173,  -6823,  15800, -12105,  -8814, -13969, -19403,   1540,   2247,  17834,  20284,   4744,   -971, -12708,  -9112,   2305,  20682, -10393,  -7120,  16571,  -6888,   9671, -19416, -17241,  13953,  20032,  21010, -11371, -10004, -19939,  -2732,  15058,  -5721, -10546,   2355,  20918, -21110,  -5763, -19660,  17416,   4278, -20594,  16029,  -9409, -10505, -13755,  16425,  14646,   7863,  16202, -20437,  -9427, -14559,  18883,
        -16683,   -552, -11236,  18271,    198,  14252, -11683,  -6480,   5442,  -2739,   3061, -21730,  -4888,   6912,  -9266, -13091,  11634,  -1003,   2774,   7446,   7210,  14296,     -9, -20826,  16537, -18677, -14576,   7796,   8542,  13809, -20086,   3486, -16247,  -3168,  18460,  -2247, -11869,   4262,  -1978,  13397, -10851,   7821,   6482,  -5108,  19029,  20086,   8308,   -443,  13837,   8146, -13283,  -9790,  20611,  10011,  16529, -15875,  -5132, -11936,   3094, -13042,  18511,  -8361,   6427,  -5994,   4823,  -1161,  19835, -20630,  10588,   -888,   3365, -12121,  22130,  10800,  -4493, -13307,  13930, -10316,   8183, -19891,  10838,  16792,  12866,  -2490,  -9813,   3197,  14236,  15299,  17395,  11326,   4326,   -624,   5758,   6913,  -6502,  10730, -12934,  -6089,  -7589,  -5286,   3892,  -7770, -18869,  -2090,  20127,  -8096, -18831,    746,  16321,  -4694, -12716,  15840,   6256,   6833,   4589,   1624,   7617, -19427,   9196,  16176,    942, -16855,   4817,   6495, -12628,   6869, -11310,  11135,  -5515,  -6216,  18404,  -5388,  19497,   8208, -13047, -10437,    790,  -7424,  15000, -11777, -15090,  -7734,  14635, -12604,  18610,  17827,   6500,  19967,  16019,  -8790, -20381,  -2100,  -8374,   9150, -15898,  11057,  -5455,  -3783, -18533,  16744,   9853,  13526,   8384, -13666,   4187,   4292,  -2973,  -8546,  -9105,  15659,  -8721,  21566,  -1356,   1851,   6881,  14945,   6970, -11624,  20118,  20246,  -5095, -16429,  -4826,   6726,   5096, -11909,  14119,   9400, -10010,   -288,   5542,  11935, -12023, -18050,  -1255,  -1425, -11943, -19719,  20917,   6129,  -6272,  -6878,  -5036,  -1357,    918,   6871, -18392,   2853,  18414, -21769,   9254,  -1315,  17455,  17431,   4288, -16135, -15307,   1962,  14253,   6833,  15858,  17579, -14766, -12766,   6223,  -9094, -20008,  19919,  -8215,  -5205,  -2376, -17809,  16793,  -8941,   9322,   2397,  -5255, -17478,   2508,  16322,   6944,  11400, -21317,  -7936,  16720,  -6307,   6715, -10747,   8949,  -2066,  15216,    699,   2760,  -3407,    683, -21457, -19637,  -9673,  12712, -20335,   7487,  18075, -16005,   8286,  15959,   1578, -15965,  21351,   1213,  13817,  -1039, -12678,   5156,   2163, -14543,  -9267,   8832,  15867,  15799,  -8818,  -5859,   6104,  13611,  11682,   1110, -19164,    427,  20964,  15885,  -6264,   8134,  -2881,   1752,  -7486,   9905,  13964,   5591,  -5260,   3981,  21467,  -6315,  -5313,  15298,  13385,   2047, -11291, -13927, -12539,  21590,  -4887,  -4579, -18775,  -7923,   1979, -16026,  17838, -13533, -17933,  21474,  16730,   2666,   6020,  -5918,    -19,  -1677,   4416,  -8037,  -7188,  -3848,  13363,  21421,   7672,  19416,  -1000,  -7088, -14945,  21736,   8532, -12783,  -6175,  13374, -14236, -10071,   3144,   2275,  -5716,  19932, -19455,   4546,  12586, -19591,    389,   7717,   7891,  13401, -19773,  -1987,   5441,  13296,   1224,  -6432, -10766, -16557,  16575,  21694,  18255, -16604, -17846,  -3542,  -4745, -12509,   -573, -20468,   2332,  -3244,  -2739, -15408,  14951, -19269,  -2501,  -3582,  13450,  -5985,  -7901,  -9125,  -6647,    760, -14138,  -9983,   -554, -18366,  16107,  15905,   7428,  -4715,  13588,  15978,   2491,   -443,   6090,  -2213,  11563,  14857,  18073,   9142,  19612, -16902,  13095,  10043,  -7728,  20227, -20794, -12026,  -4224,  10050,   4599,   4716, -10377,   8464, -13316,  10005,  17202, -17580,  16491,  11852,  21370,  22898,  -1198,  -1049, -14248,  15251, -13353, -17799, -13426,  11196,   8130,  21548,   2721, -20123, -13829,   4422,  15765,   9456,  -9262,    716,  11982, -20042,  -2863, -19489, -11039,  -4743, -10375,  13837,   6930, -12780,  19934, -20447,   9210, -17537,   3200, -18752,   7345, -19201,  -1234, -16980,  14728,  12894,   1673,  11807,  -8586,   9875,  -8546,   3738, -17958, -19929,   6708, -18538,  -5247, -17982,  13852,  -7800,  -3562,  -7641,   5246,   -441,   2846,  13328,  -8481,  -5985,  22200,  -4642,   6286,  19412,  -2464, -10454,  -4292,  -8328,  -7782,   7841,  11540, -19886,   4358,   7261,   3190, -21371,  19890,   4453,  12387,   1025,  19877,  15235,   1443,
         -4994,  13068,   6289,  -6553, -14171,  16862,   8522, -12958, -20629,   2192,  -9530,  20804, -11935,  11125,  12821,  -7055,   8069, -10143, -19369, -11189,  22554,  16273,   3177,  -4689, -16574, -19530,  -2232,  15853,  19261, -11954,  19834,  -9205, -19045, -16021, -18594,   7477,   4641, -10858,  -4074, -13226,  11771,  13463,  13283,   8133,  21521, -16632,  15339, -14713,  -6676,  -4900,  12592,   8006,  20115,   7779, -16342,  10122, -12110,  21410,  -9419,   1561, -12652,  10182,  20620,  -8628,  21294, -12488,   5548,   1339,  19819,   2718,  -9263, -17770, -11519,   4282,   7820, -11829, -20918,  21513, -10472,   3441,  -4596,   6691,  12798, -16382, -19316, -21035, -11366, -19158, -20153,   2396, -14960,  -1636,   2377,   8914,  11083, -20741,  14104, -18482,  -2652,  -3868,   5762, -13993,  21859, -11844, -15607,  -2870,  -9511,  18128, -16323,   3555,  12331,  20338,   6711,  -4049, -19272,  -9307, -20311,  -5844,   1022, -18483,   5526,   -330,  20999,  12751,  -3403,   6360,  -7766,  -7428,  -5483, -11297, -18293,  12814,  14184,  -8293,  -6121,  10043, -20119,  -3376, -21373, -19036, -19095,  -9970, -16207,  14927,  -5134,   2958,  -4987,   -820,    681,  10143, -16387,  14625, -21063,  12711,  11769, -11346,   -885,  12412, -11198,  -9248,  -4016, -18080,    806,  -3518,  16026, -19651,  -3610,  -8463,  19039,   1068,   4502,   9242,  -8043, -13303, -12095,  -8810,   7718, -17330,  10571, -20176,   9781,   8231,   2668,   3938,  12707, -17725, -12899, -15819,  -6055,   2840, -10907,   9187,   9871, -17206,  20155,  -1164, -14429,  -3732, -11128,  -8936,   9809, -11118,  11468,  -4461,  -7429,  -5893, -11813, -14279,  12981,  19771,   8045,  20888,   8538,   4332,  20022,  18000, -12160,  -1308,   4193,  12043,   4936,   5846,  18891,  20319, -19872, -17448,  -9380,   -785,   8018,  -2395,   3421,   9428,  -6328,   3538,    122,  -1167, -13790,  21814, -20189,  -1473,  15338,  -6607,  -3207,   8110,  -3840,    421, -10374, -14861,  -9484,  -5746,  -9836,  -6399,   8464,   7465,  21895, -11954,  -5973,  15711,   2164, -16587,   8398,  17558,  -6169,  -9743,   7919,  -5819,  -5457,   4074, -18234,  11423,   -960,  -5120, -18175, -18311, -14314,  -9983,   4422, -20546, -16905,   9112,  17397, -12078,   9576,  10897, -15464,  11698,  11260,   4852, -15363,  21947, -10938,  18062,  19579,   3759,  18149, -19616,  14839,    428,  18075,  18584, -19454, -11359,  20765,  -4060,  14081,  -9983,  -4810,  13808,  -4492,  10601, -12813,  -3403,   1375,  -7507,  14377, -14021,   1310,  10593,   -227, -14979,  -3250, -17748, -12837,  -1843,  16576,   8368,  -3255, -12144, -14086,   8491,  19799, -16187,  15096,   5870,  16061,  -8692,  -5286,  10535,   7015, -14909,  22509,  17273,  11780,  14639,  -8550, -17299,  14373, -11637,   9413,  -9290,   5070,   4534,  -4980,  -9490,   3224,  11663,  -9804, -19480,    231,   9472,  11583,   1034, -12803, -20625, -14655,  20624,  21572,  17078,  14833,  -1741,   5072,  -4945, -18419,  15511,  -8642, -13607,  -1726,  -3363,  16477,  11844,   9301,  -9702,  21755,  -9908, -12337,  -6163,  -8926,  18908,   8728,   5395,  -9557,   1045, -13222,  -8739,  -5592, -20642,  11991,  -2216,  12718, -11446,  14749,   6985, -10178,  14211, -14312, -20185,  19324,  15970, -19827, -10897, -11495,  -4822,  14516, -16080,  -1711,  -1164,  -7222, -12259,  -8499,   4466,   2436,  12196,   6801,   -688,  -2098,  -1967,  -9137,  20336,   8219, -13558,  11542,  -5039, -13586, -18453, -19576,  11534,  -8335, -12866,  20533,  -4339, -14538, -10112,  -2793,  12634,  13892,   4380,   9302, -16429,   9759,  22317,  -9607,   5787,  -5262,   5786,  17031,  17517,   7904,  -6543,   5445,  18538,  19198,  -4277, -12036, -17149,   6797,   1380, -10541,  -2075,  -8992,  -8209,   2166, -12041,  -6110,   -629,  16563, -13336,  14061,  14109,   7060,  20099,   2356,  20040, -21118,   5603,   5327, -19798,   4686, -14654, -21127,   -463,  12495,  12623,  20116, -19298, -19529,  17544,  11875,   8541,  13986,  17287,  -3631,  21079,  -6741,  -3026,  13133,  17144,  16095,  20464, -10743,  12835, -10558,  -6339,
         16453, -21583,  10575,  12474, -17733, -19141,   4410,   9065,  -6214, -10840, -13885, -21230,  -3866,  12530,   -449, -13402,   4624, -17710, -14741, -17706,  -4765,   1631,   8645,  -9151,   8740, -17890,  15903, -19526, -21264,   6564,  14005, -14655,  -4756, -13298,  -5065,  -2390,  -8642,  -9948, -18352,  -6546,  -5138, -16820,  14019,  18446, -11037,  20566, -19439, -21018,   -192, -21087, -16854,  -8770, -19468,  -6385,   -168, -13965,   7174,   5026,  -9380,    -96,  19263,   9466, -21459,   8869,  12188,  15850,   8063,  21845,  -1595, -17178,  10639, -17243,  -6261,  -5382, -17048,  20141,  -9244,  15491, -12837,   3107,  18526,  -6027,  13315, -13374,  -7225,  21933, -17159,  -6607, -10518,  -1083,   8208, -16739,  13667, -13967, -11976,   7988, -21063, -16989,  -8273,   -920,   6141,  14458,  16125,  10498,   9925,  18970,   3341,   9039, -14805,  12127, -13300,  -1833,  -7813,   8242,  -1126,  16473,   -337, -19653,  11816,  17490, -15617, -11390,   4681,  -2171,  -6830,  15071,   1738,   3103,   7544,   7537, -19153,    674,  19870,  10183,  -7939,   5677,  -8311,  17125,  -7792,   8670,  10482,   8530,  16488,  -8141,   2857,  13893,  -4564,   3404,  -3064,  -7057,  15178,  -1467,   2590,  12899,   2859,   3593,   1338, -11489, -19599,  -5043,  19613,  20932, -15450,  13620,  -1620,    612,  -2569,  -1198,   8314,  12828, -20663,  -9901,  -6650,  17067,  -2812,   1057,  -3732,  19604,  18854,   5583, -16630, -18329, -17130,   4390, -19843,  -7599,   2753,  12820, -17258,   5782,   -401,   8706,   2754,    918,  13876,  12353,  13205,   8548,  -8005, -10165,   -383,   6696,   2796,  19035, -16447, -10017,  -3979,  18217,  12443,  18321, -15875,  -8946, -14276, -21599, -15516,   8905, -20308,  -8061,  18622,  -1040,   4692, -17135,  -2391,  -6698,  17910, -12993,   6720,   3898, -18652,   9615,  -7782, -16908, -18521,  10258,  16664, -10393,  -6203,  21110, -12460,  -8247, -20201,  20953, -13478,   1777,   3319, -12858,  12409,  -3175, -18345,  19251,  21293,  14450,  -6534,   8199,  -2598,  12992,   6358,   4032,   8399,   2607,  18101,  16899,  13183, -15697,  -4334,   2029,   1174,   3556, -17985, -18708,   4409,  -5375,  17406,  15378,    161,   2099, -18771,  14658, -12984,  19832,   5672, -19204,  12674,  -3678,  -7781, -11308,  16976,  -2197,   5855,  19309,  -9793, -12176,  -1449,  17231,   7252, -12430, -16503, -10376,   2697,  -4757,   6444,   5159,  -4926,  12145,  -6948,   2463,   9290, -16598, -21881, -11189,  19776,  -4881, -12216,  18333, -21943,   1927,   2366,   7448,  15804, -20168,  -2956,  20428,   3151,  14593,  -3712,  -3897,   4287,   7409,  20252,  -2041,   4041,  -8260,   2985,  -9846, -19904, -12864,  10822, -12891,  -8957,  -8253,   3541,  -7705, -10432,  11640, -19759,  -3450,    316, -15318,  15348,  -5512,  12201,   8578, -13961,  -1555,   6346,   9539,   9365,   2137,  -4722,   3948,  10004,   7043,  18767,  19954,  -3774, -18350,  16527,  -5738,   9170,  12035,   3386,  -2177, -13987,    738, -10689,    867,  -1141,  -1822,  -5982,   9714, -18633,  21824,   5037, -16903,  18931,  14679,  -7521,  14918, -14484,  15787, -20644, -16214,  -5321,  11283,   1121,   7221,  11564, -14793, -21605,  15028, -10379,  21297,   9625, -13995,   7296,   1810,  -3152,  -2403,  21261, -11304,  -2202,     70,  -6080,  14099, -15040,  -9101,  -2421,   8574, -11947,  11347,  -8480,  10478, -19228,  -7908,  17750,   5361, -10471,  21804,  13560,   2541,  -4431,   1779,   5275,  12436,  13020, -20564,   4664,  -1581,   1886,  15216,  -9176, -14443,  -3633,   5152, -12934, -21002, -20663,  -3992,   7738, -10670,   3513,   5982,   9766,   6899,  -4157,   3348,   4190,  -3114,  10904,  14586,   -271, -16916,   8010,   6608,  -7277,  15549,   7397, -21121, -21035,  -8932,  13634, -14384,   7461,  10000,   6319,  -4089, -13403,  18213,   9179,  -5016, -12755, -18170,  13151,  -9021,  -2382,   1037, -13095,  -1829,  20972, -19697, -14502,  -1622,   -189,  19101,   1239,   8238, -20535,   5725, -18318,    777,   2694,  21926, -16229, -13224,    322,  22194,  -6543,    706,  12503,  11561, -18233, -10033,
        -20603,   3150, -19184, -18818,  -6078,   1435, -11790,  -2420,  -6622,  -3350,   3691,   1769, -16797, -17897,   1289,   5649,  15347, -14938,  15901, -12467,  12883,  18779,   5546, -19239,  12295,  16564,   8676,  -3457,  14321,    293,   7598,  -7722,  -3283,  19677,  -6666,   -977,  11454,   5006, -14330,   2426,   7681,   3287,   9966,  -2109,   4754,  10291, -13424,  -9149,  -3557,   5439,  10633, -21039,  11310, -12543,  -3383, -15087,   7097,  -1318,   2016,    131, -19329,  17525,  14933,  20384,  15167, -22029,  -3215, -12937,    840,   4025, -14569,  -5256, -10948, -19806, -18774,  13814,   8209,   3341,  19295, -12313,  -7888,  13599, -13228,  -2896,   4889,  -2823,  18815, -12086, -21269,  -5601,  -6079,  21370, -13676,  -4850,   6121,   4324,  -4726,  16882,  10756, -18233, -10491, -18660,  13192,  -9982,   7142,  -4767,  19712, -19987,   8739,  16029,   7279,  20637, -17188, -13684,  -9505, -13004, -21741,  19598, -13789,   1338,   5392,  13559,  -3767,  21088, -20264,  19158, -20697, -14026, -19881,  21146,  17761,  -7418, -15356, -10443,   4258,  -3216,  -1328,  10539, -18358, -19168,   4419,  -2199, -18078, -16285, -20267, -21072,   8413,  -7701,  21698,  -3718,    686, -17702,  -1726,  15914,  12764,  -2164,  19218,  13671,  18567,   3179,  11974, -11573, -13227, -17191,  12646,   8147,  12594,  -9563,  14954,  12966,   1662,   8436,   6810, -18284, -10791,  -9229, -12755,   1460, -18792,  20350,  17711,   2000,  21316,  -5412, -10513,  19801,   2995,  18915,  12619,   7078,   2300,  -7227,    911,  17990,  -9322,   4390,  12474,  20617, -20381,   -623, -20600, -16013, -20484,   5982, -18783, -18209, -21469,   4938,  -5489,  10253,  11135, -15455,   9722,    621,  -6025,  -5732,  10863,   5854,  11058,  -8556,  10844, -18156,    958,   5999, -10279,  11170,  15485,  18079,  11283,   4761,   8115,   3166,  19842,  13335, -17394,   2350,  -3487, -13900, -10180, -13361,  16802,   1441,  -7306, -16208,  -9906, -12645,   1933,  15027,  20592,   3180, -19509,  -9646, -18322,  18294, -18926, -19173,  -9938, -20005,  20878,  -5152, -21028, -18082,  16170,  19093, -20895,   5404, -21832, -19757,  -5360,  12006, -12883,  14197,  -8977,   2540, -17600,  12880, -10007, -20885,  19472, -10020,  20802,  -5842,  -7082,  11864,  -1736,  19760, -17492,   -235, -14414,   7745, -13515,   5853,  12303,  16306,   2375,  -3150, -11747,  16110, -19820, -19440,  -1725,  10875,   2298,  18456,   6133,   7456,   3672, -17539,   9136,   9288, -12963, -21013,  -1758,   7804, -11008,  -5757, -12750, -15782,  13982,  21368,  20234, -12929, -13336, -20573, -17877,  18234,  21346, -21313,  -5457,  -9339,  20222,  -9845,   3796,  12884, -11093, -16194,   4898,  21849,  -8808,   7617,  16878,  18408, -12156,   9614,    898,    819,  16633,  -5263,   1760,  19227,   7304, -11250,  -6431, -16659,  11940,  21254,  15252, -12869, -20320, -16537,   2992,  21692,  14395, -17905,  -4242,  15129,   9308,  -1533,   4374,   6637,   3259, -18582, -14034,  14288,   5533, -11235,  -4497,  15651,  16810,  17343, -17778,  -5508,   3329, -15109,  10553, -10986, -13725,  -7679,  20349,  14537,  12834,   2373,  16161,  15758,  20123, -17632,  12677,   5985,   -139,  -4720,  11027,   5772,  -9080,  -5994, -16412,   4252, -15658,  -9395,  11372, -13108,   5484, -20658,   2108,  -6316,  15835, -17373,  -6476,  -2065,   5022,  21405,   -279,  13019, -17174, -11769,  17398,  -3023,   1371, -17988, -12733,  17863, -11100,  -4433,  -6755,   1425,  13276,  -6811,  20979,  11523,  13369,   8925, -20155,   2069,   7519,  11360,  21383, -11371,  -9965,  -4467,  12951,  14324,    442,  22589, -17731,  12195,  11065,  -8845,  20071,  -5449,  15688,  -4897, -19419,    650, -17910, -18632, -14243,  -8507,  -2053,  12757, -14748,  12563,   9622,  20224,  21194,  16809,  -8335,  -5778, -17704,   3546, -16168,  -4960,  -9691,    984,  16717, -11151, -20200,  -5299,  17089, -10755,   3621,  -4614,  11303,  11461, -11525,   3100,  22273, -13720,   5017, -18964, -10026,  -2508, -13357,  -5563,  -4074, -15532,  -4324,  15382,  15669,   -409,  17703,  12294,  -9638,  11843,
